{"learner":{"attributes":{"scikit_learn":"{\"_estimator_type\": \"regressor\"}"},"feature_names":["temperature_2m_mean","precipitation_sum","wind_speed_10m_max","wind_direction_10m_dominant"],"feature_types":["float","float","float","float"],"gradient_booster":{"model":{"gbtree_model_param":{"num_parallel_tree":"1","num_trees":"100"},"iteration_indptr":[0,1,2,3,4,5,6,7,8,9,10,11,12,13,14,15,16,17,18,19,20,21,22,23,24,25,26,27,28,29,30,31,32,33,34,35,36,37,38,39,40,41,42,43,44,45,46,47,48,49,50,51,52,53,54,55,56,57,58,59,60,61,62,63,64,65,66,67,68,69,70,71,72,73,74,75,76,77,78,79,80,81,82,83,84,85,86,87,88,89,90,91,92,93,94,95,96,97,98,99,100],"tree_info":[0,0,0,0,0,0,0,0,0,0,0,0,0,0,0,0,0,0,0,0,0,0,0,0,0,0,0,0,0,0,0,0,0,0,0,0,0,0,0,0,0,0,0,0,0,0,0,0,0,0,0,0,0,0,0,0,0,0,0,0,0,0,0,0,0,0,0,0,0,0,0,0,0,0,0,0,0,0,0,0,0,0,0,0,0,0,0,0,0,0,0,0,0,0,0,0,0,0,0,0],"trees":[{"base_weights":[-1.6849813E-6,1.2388135E1,-6.950476E0,2.7030354E1,1.5766122E0,-3.31673E0,-1.6771793E1,3.0390928E1,8.391116E0,8.026379E0,-1.4268965E1,-1.2519925E0,-9.867423E0,-1.7801859E1,-4.06975E0,3.75286E1,2.3861784E1,2.4853092E1,4.6049833E0,1.4014006E1,8.634138E-1,-7.2708397E0,-1.80106E1,9.362759E0,-3.5186176E0,-1.2089102E1,4.6085105E0,-5.761046E0,-1.8252707E1,-7.087138E0,3.2280927E0,3.7937187E1,1.0173785E1,2.7662085E1,9.572796E0,-2.3608985E0,9.195603E0,1.0579529E1,-1.0023565E0,1.5441894E1,2.1865199E0,1.0589183E1,-6.545811E0,-1.5001842E0,-1.4989951E1,1.0085418E0,-1.9161123E1,1.1013023E1,-3.329371E0,-5.5171976E0,1.9880338E0,-7.812978E0,-1.5827202E1,7.710827E-1,1.8550564E1,3.8530927E0,-5.997438E0,-1.9404192E1,-1.3279692E1,-8.443115E0,2.5071182E0,-1.9914582E0,2.6836524E0,7.360383E0,1.1669422E1,-3.1108985E0,7.6891017E0,8.533639E0,5.8365244E-1,4.2109294E0,4.0382884E-2,-4.9011156E-1,5.0466866E0,-1.2662741E0,1.3059279E0,6.1595182E0,3.733754E0,-3.6796172E0,5.9934278E0,4.225476E0,-3.3815725E0,-3.919969E-1,-3.9791584E0,-2.3574917E0,5.6651697E0,-1.5478646E0,-4.7870107E0,1.8521355E0,-1.3478646E0,-4.7401266E0,-6.7662554E0,2.7805135E0,1.0009889E1,-1.9198153E0,1.7836524E0,-9.7257566E-1,-3.5808086E0,1.1435932E-1,2.349874E0,-4.9329348E0,-1.7186283E0,-4.931343E0,2.4521356E0,-6.206496E-1,3.4225626E0,9.339102E0,2.9425628E0,2.3151696E0,-1.5478646E0,-5.409317E0,-6.7583847E0,-4.501739E0,-3.2132661E0,6.391016E-1,-2.7870104E0,1.6891017E0,-5.608984E-1,-1.0663476E0,6.391016E-1],"categories":[],"categories_nodes":[],"categories_segments":[],"categories_sizes":[],"default_left":[0,0,0,0,0,0,0,0,0,0,0,0,0,0,0,0,0,0,0,0,0,0,0,0,0,0,0,0,0,0,0,0,0,0,0,0,0,0,0,0,0,0,0,0,0,0,0,0,0,0,0,0,0,0,0,0,0,0,0,0,0,0,0,0,0,0,0,0,0,0,0,0,0,0,0,0,0,0,0,0,0,0,0,0,0,0,0,0,0,0,0,0,0,0,0,0,0,0,0,0,0,0,0,0,0,0,0,0,0,0,0,0,0,0,0,0,0,0,0],"id":0,"left_children":[1,3,5,7,9,11,13,15,17,19,21,23,25,27,29,31,33,35,37,39,41,43,45,47,49,51,53,55,57,59,61,63,65,67,69,-1,-1,71,73,75,77,79,81,83,85,87,89,91,93,95,97,99,101,103,105,107,-1,109,111,113,115,117,-1,-1,-1,-1,-1,-1,-1,-1,-1,-1,-1,-1,-1,-1,-1,-1,-1,-1,-1,-1,-1,-1,-1,-1,-1,-1,-1,-1,-1,-1,-1,-1,-1,-1,-1,-1,-1,-1,-1,-1,-1,-1,-1,-1,-1,-1,-1,-1,-1,-1,-1,-1,-1,-1,-1,-1,-1],"loss_changes":[1.5739706E5,1.0396355E5,4.1735227E4,1.7221156E4,3.8848434E4,1.1565443E4,4.0620781E3,1.0102766E4,2.6279502E3,1.1567975E4,2.749332E3,1.5719844E4,6.6486895E3,1.4799844E3,5.7338855E2,8.546719E2,6.5773125E3,1.7592734E3,1.2501526E3,2.4488184E3,9.004807E3,1.7592856E3,1.5729473E3,2.4453838E3,5.9319185E3,2.7215977E3,1.4837415E3,1.7187867E3,1.3514219E3,2.5534058E2,2.565533E2,4.4939062E2,1.2183705E3,1.9390859E3,1.1777122E3,0E0,0E0,1.3998796E3,3.6311035E2,1.7421387E3,4.6161167E3,4.2854746E3,2.481649E3,3.2589028E3,7.923096E1,1.6981903E2,4.0763867E2,3.6685977E3,4.366836E2,5.730134E3,1.3494281E3,1.4347031E3,1.5119414E3,7.184203E2,3.5449268E2,3.184262E2,0E0,5.631953E2,8.7581055E1,1.630686E2,5.1535767E1,3.9784813E1,0E0,0E0,0E0,0E0,0E0,0E0,0E0,0E0,0E0,0E0,0E0,0E0,0E0,0E0,0E0,0E0,0E0,0E0,0E0,0E0,0E0,0E0,0E0,0E0,0E0,0E0,0E0,0E0,0E0,0E0,0E0,0E0,0E0,0E0,0E0,0E0,0E0,0E0,0E0,0E0,0E0,0E0,0E0,0E0,0E0,0E0,0E0,0E0,0E0,0E0,0E0,0E0,0E0,0E0,0E0,0E0,0E0],"parents":[2147483647,0,0,1,1,2,2,3,3,4,4,5,5,6,6,7,7,8,8,9,9,10,10,11,11,12,12,13,13,14,14,15,15,16,16,17,17,18,18,19,19,20,20,21,21,22,22,23,23,24,24,25,25,26,26,27,27,28,28,29,29,30,30,31,31,32,32,33,33,34,34,37,37,38,38,39,39,40,40,41,41,42,42,43,43,44,44,45,45,46,46,47,47,48,48,49,49,50,50,51,51,52,52,53,53,54,54,55,55,57,57,58,58,59,59,60,60,61,61],"right_children":[2,4,6,8,10,12,14,16,18,20,22,24,26,28,30,32,34,36,38,40,42,44,46,48,50,52,54,56,58,60,62,64,66,68,70,-1,-1,72,74,76,78,80,82,84,86,88,90,92,94,96,98,100,102,104,106,108,-1,110,112,114,116,118,-1,-1,-1,-1,-1,-1,-1,-1,-1,-1,-1,-1,-1,-1,-1,-1,-1,-1,-1,-1,-1,-1,-1,-1,-1,-1,-1,-1,-1,-1,-1,-1,-1,-1,-1,-1,-1,-1,-1,-1,-1,-1,-1,-1,-1,-1,-1,-1,-1,-1,-1,-1,-1,-1,-1,-1,-1],"split_conditions":[1.0167E1,1E-1,2.977795E2,2.8786493E2,3.058431E2,2.9999998E0,2.3267E1,5.8670006E0,7.928178E0,5.9E0,9.904906E0,1.31294985E1,2.1873251E1,1.0877418E1,1E-1,1.0739832E1,2.54419E2,2.900607E2,3.020053E2,1.0365251E1,6.2440834E0,6.8999996E0,1.246167E0,2.816336E2,2.378575E1,9.100001E0,2.7098773E2,6E-1,2.1008667E1,2.6242004E1,2.4052416E1,-3.4758338E-1,4.7315836E0,1.097262E1,8.189917E0,-2.3608985E0,9.195603E0,9.504272E0,6.508667E0,2.250001E2,2.9913916E2,9.387651E0,8.14587E0,4.6E0,3.7842832E0,1.21166624E-1,3.9E0,2.734601E2,1.1900333E1,2.6920706E2,2.7871168E1,3.7000003E0,2.929993E2,2.4475336E1,5E0,1.3339445E1,-5.997438E0,3.2403284E2,3.1446457E2,6.519877E0,3.0107895E2,8E-1,2.6836524E0,7.360383E0,1.1669422E1,-3.1108985E0,7.6891017E0,8.533639E0,5.8365244E-1,4.2109294E0,4.0382884E-2,-4.9011156E-1,5.0466866E0,-1.2662741E0,1.3059279E0,6.1595182E0,3.733754E0,-3.6796172E0,5.9934278E0,4.225476E0,-3.3815725E0,-3.919969E-1,-3.9791584E0,-2.3574917E0,5.6651697E0,-1.5478646E0,-4.7870107E0,1.8521355E0,-1.3478646E0,-4.7401266E0,-6.7662554E0,2.7805135E0,1.0009889E1,-1.9198153E0,1.7836524E0,-9.7257566E-1,-3.5808086E0,1.1435932E-1,2.349874E0,-4.9329348E0,-1.7186283E0,-4.931343E0,2.4521356E0,-6.206496E-1,3.4225626E0,9.339102E0,2.9425628E0,2.3151696E0,-1.5478646E0,-5.409317E0,-6.7583847E0,-4.501739E0,-3.2132661E0,6.391016E-1,-2.7870104E0,1.6891017E0,-5.608984E-1,-1.0663476E0,6.391016E-1],"split_indices":[0,1,3,3,3,1,0,0,2,1,2,0,0,0,1,2,3,3,3,2,0,1,0,3,0,1,3,1,0,0,0,0,0,2,0,0,0,2,0,3,3,2,2,1,2,0,1,3,0,3,0,1,3,0,1,2,0,3,3,2,3,1,0,0,0,0,0,0,0,0,0,0,0,0,0,0,0,0,0,0,0,0,0,0,0,0,0,0,0,0,0,0,0,0,0,0,0,0,0,0,0,0,0,0,0,0,0,0,0,0,0,0,0,0,0,0,0,0,0],"split_type":[0,0,0,0,0,0,0,0,0,0,0,0,0,0,0,0,0,0,0,0,0,0,0,0,0,0,0,0,0,0,0,0,0,0,0,0,0,0,0,0,0,0,0,0,0,0,0,0,0,0,0,0,0,0,0,0,0,0,0,0,0,0,0,0,0,0,0,0,0,0,0,0,0,0,0,0,0,0,0,0,0,0,0,0,0,0,0,0,0,0,0,0,0,0,0,0,0,0,0,0,0,0,0,0,0,0,0,0,0,0,0,0,0,0,0,0,0,0,0],"sum_hessian":[1.826E3,6.56E2,1.17E3,2.78E2,3.78E2,8.55E2,3.15E2,2.35E2,4.3E1,2.69E2,1.09E2,6.51E2,2.04E2,2.91E2,2.4E1,1.1E2,1.25E2,7E0,3.6E1,1.46E2,1.23E2,3.9E1,7E1,1.14E2,5.37E2,1.77E2,2.7E1,1.1E1,2.8E2,1.7E1,7E0,1.08E2,2E0,9.8E1,2.7E1,1E0,6E0,1.7E1,1.9E1,1.3E2,1.6E1,5.3E1,7E1,2.3E1,1.6E1,4E0,6.6E1,1.01E2,1.3E1,3.94E2,1.43E2,8.4E1,9.3E1,2.2E1,5E0,7E0,4E0,2.25E2,5.5E1,1.5E1,2E0,4E0,3E0,9E0,9.9E1,1E0,1E0,9.5E1,3E0,1.8E1,9E0,6E0,1.1E1,1.2E1,7E0,4.6E1,8.4E1,9E0,7E0,4.6E1,7E0,4E1,3E1,1.8E1,5E0,2E0,1.4E1,2E0,2E0,3.6E1,3E1,9.5E1,6E0,1E1,3E0,2.92E2,1.02E2,1.13E2,3E1,1.5E1,6.9E1,9.1E1,2E0,1.8E1,4E0,1E0,4E0,5E0,2E0,1.61E2,6.4E1,3E1,2.5E1,1E0,1.4E1,1E0,1E0,3E0,1E0],"tree_param":{"num_deleted":"0","num_feature":"4","num_nodes":"119","size_leaf_vector":"1"}},{"base_weights":[1.953892E-2,8.1631975E0,-5.284524E0,1.8172695E1,3.5244817E-1,-2.716092E0,-1.2090805E1,2.0721367E1,5.9695544E0,4.555101E0,-1.0585007E1,-1.4706851E0,-6.9711356E0,-1.2880035E1,-2.7993567E0,2.6297646E1,1.6353306E1,9.360717E0,1.0579745E0,6.7026324E0,-6.0589056E0,-5.9097753E0,-1.3065821E1,2.8069124E0,-3.224753E0,-9.842516E0,5.973607E-1,-1.4140772E1,-1.0163747E1,-5.0176473E0,2.5417166E0,2.1294355E1,2.8453268E1,1.8916195E1,5.556642E0,9.9702007E-1,1.3497247E1,7.071998E0,-2.3910372E0,9.495989E0,3.6614284E-1,-2.0400736E0,-1.30901575E1,-7.269602E0,1.3737892E1,8.068344E-1,-1.3881726E1,5.7455435E0,-2.8350341E0,-6.057552E0,9.092298E-1,-8.399972E0,-1.667342E1,-5.4123706E-1,4.233358E0,-1.2553308E1,-1.5997766E1,-9.381963E0,-4.378145E0,-6.044425E0,2.13105E0,6.011621E0,-2.4310932E0,9.728791E0,3.786739E0,9.711311E0,6.516588E0,5.9085703E0,2.495701E-1,2.9963994E0,-6.635767E-2,3.9740915E0,-8.3330023E-1,6.8220396E0,2.8323288E0,9.7815424E-1,3.3063676E0,4.4145864E-1,-1.4567189E0,6.0193553E0,2.5256739E0,1.3716471E0,-1.668002E0,-3.6808424E0,8.822841E-1,-1.0702629E0,-4.943483E0,2.839088E0,-2.6780748E0,6.0893264E0,9.272519E-2,1.4817085E0,-1.0782913E0,-3.5067081E0,-5.6008167E0,1.3982236E0,6.7774396E0,1.1038202E0,-2.3469198E0,-1.85882E0,4.5349884E0,-1.1591109E-1,1.3221909E0,-1.9189951E0,-3.770184E0,-1.3975105E0,-5.497607E0,-1.28809E0,8.397022E-1,-4.738176E0,-3.454966E0,-1.4836763E0,-5.0851965E0,-2.8852985E0,1.4210913E0,5.432362E-1,-2.0066476E0,1.4357363E0,-4.7676376E-1,3.4905398E-1,2.0798311E0,-1.3345947E0,5.432362E-1],"categories":[],"categories_nodes":[],"categories_segments":[],"categories_sizes":[],"default_left":[0,0,0,0,0,0,0,0,0,0,0,0,0,0,0,0,0,0,0,0,0,0,0,0,0,0,0,0,0,0,0,0,0,0,0,0,0,0,0,0,0,0,0,0,0,0,0,0,0,0,0,0,0,0,0,0,0,0,0,0,0,0,0,0,0,0,0,0,0,0,0,0,0,0,0,0,0,0,0,0,0,0,0,0,0,0,0,0,0,0,0,0,0,0,0,0,0,0,0,0,0,0,0,0,0,0,0,0,0,0,0,0,0,0,0,0,0,0,0,0,0,0,0],"id":1,"left_children":[1,3,5,7,9,11,13,15,17,19,21,23,25,27,29,31,33,35,37,39,41,43,45,47,49,51,53,55,57,59,61,63,65,67,69,71,73,75,77,79,81,83,85,87,89,91,93,95,97,99,101,103,105,107,-1,109,111,113,-1,115,117,119,121,-1,-1,-1,-1,-1,-1,-1,-1,-1,-1,-1,-1,-1,-1,-1,-1,-1,-1,-1,-1,-1,-1,-1,-1,-1,-1,-1,-1,-1,-1,-1,-1,-1,-1,-1,-1,-1,-1,-1,-1,-1,-1,-1,-1,-1,-1,-1,-1,-1,-1,-1,-1,-1,-1,-1,-1,-1,-1,-1,-1],"loss_changes":[7.895945E4,5.6362586E4,1.9319143E4,9.704469E3,1.8710543E4,4.2556523E3,2.185875E3,5.927258E3,9.2283057E2,6.7420215E3,1.2334023E3,4.6910464E3,3.9611094E3,8.1171875E2,3.0895474E2,6.128281E2,4.0178164E3,1.1282334E3,5.147279E2,4.333041E3,1.3861664E3,1.1952831E3,8.374697E2,3.0337756E3,5.1933667E3,1.1606562E3,7.923652E2,3.533828E2,1.8170996E2,1.450032E2,1.526562E2,3.2599844E3,1.3010898E3,1.6742227E3,7.7031836E2,5.916725E2,6.101001E2,9.9536835E1,1.5946593E2,1.766207E3,1.919757E3,1.717528E3,5.219602E2,1.1660374E3,2.579997E2,1.0868417E2,5.0612793E2,2.0876382E3,2.0759192E3,8.650244E2,8.220136E2,8.462905E2,3.5129248E2,6.1364606E2,0E0,1.7423828E2,7.902832E2,3.1511182E2,0E0,9.310242E1,3.7234596E1,1.4262772E1,4.228848E1,0E0,0E0,0E0,0E0,0E0,0E0,0E0,0E0,0E0,0E0,0E0,0E0,0E0,0E0,0E0,0E0,0E0,0E0,0E0,0E0,0E0,0E0,0E0,0E0,0E0,0E0,0E0,0E0,0E0,0E0,0E0,0E0,0E0,0E0,0E0,0E0,0E0,0E0,0E0,0E0,0E0,0E0,0E0,0E0,0E0,0E0,0E0,0E0,0E0,0E0,0E0,0E0,0E0,0E0,0E0,0E0,0E0,0E0,0E0,0E0],"parents":[2147483647,0,0,1,1,2,2,3,3,4,4,5,5,6,6,7,7,8,8,9,9,10,10,11,11,12,12,13,13,14,14,15,15,16,16,17,17,18,18,19,19,20,20,21,21,22,22,23,23,24,24,25,25,26,26,27,27,28,28,29,29,30,30,31,31,32,32,33,33,34,34,35,35,36,36,37,37,38,38,39,39,40,40,41,41,42,42,43,43,44,44,45,45,46,46,47,47,48,48,49,49,50,50,51,51,52,52,53,53,55,55,56,56,57,57,59,59,60,60,61,61,62,62],"right_children":[2,4,6,8,10,12,14,16,18,20,22,24,26,28,30,32,34,36,38,40,42,44,46,48,50,52,54,56,58,60,62,64,66,68,70,72,74,76,78,80,82,84,86,88,90,92,94,96,98,100,102,104,106,108,-1,110,112,114,-1,116,118,120,122,-1,-1,-1,-1,-1,-1,-1,-1,-1,-1,-1,-1,-1,-1,-1,-1,-1,-1,-1,-1,-1,-1,-1,-1,-1,-1,-1,-1,-1,-1,-1,-1,-1,-1,-1,-1,-1,-1,-1,-1,-1,-1,-1,-1,-1,-1,-1,-1,-1,-1,-1,-1,-1,-1,-1,-1,-1,-1,-1,-1],"split_conditions":[1.0989917E1,2E-1,2.977795E2,2.8786493E2,3.0636588E2,3.1000001E0,2.3267E1,5.8670006E0,3.0553775E2,1.8199999E1,9.904906E0,1.5183667E1,1.9775335E1,1.9356585E1,1E-1,2.3298E2,2.5693066E2,2.912974E2,9.504272E0,8.854829E0,8.854829E0,9.659814E0,1.246167E0,2.247407E2,2.2867002E1,1.1609651E1,2.9497595E2,3.1811414E2,1.27279215E1,2.6242004E1,4E-1,1.9642477E2,2.7098773E2,1.097262E1,8.189917E0,3.9199987E-1,7.928178E0,3.1234192E2,3.106012E2,1.03575E0,4.7E0,1.6156497E2,6.3232512E0,5E-1,3.6232498E0,1.21166624E-1,3.3021762E2,2.1989775E2,1.3002416E1,1.5683776E1,2.6921171E1,1.6399998E1,5.0000005E0,2.1873251E1,4.233358E0,1.31294985E1,6.297428E0,1.257426E1,-4.378145E0,6.519877E0,3.0107895E2,2.336075E1,8E-1,9.728791E0,3.786739E0,9.711311E0,6.516588E0,5.9085703E0,2.495701E-1,2.9963994E0,-6.635767E-2,3.9740915E0,-8.3330023E-1,6.8220396E0,2.8323288E0,9.7815424E-1,3.3063676E0,4.4145864E-1,-1.4567189E0,6.0193553E0,2.5256739E0,1.3716471E0,-1.668002E0,-3.6808424E0,8.822841E-1,-1.0702629E0,-4.943483E0,2.839088E0,-2.6780748E0,6.0893264E0,9.272519E-2,1.4817085E0,-1.0782913E0,-3.5067081E0,-5.6008167E0,1.3982236E0,6.7774396E0,1.1038202E0,-2.3469198E0,-1.85882E0,4.5349884E0,-1.1591109E-1,1.3221909E0,-1.9189951E0,-3.770184E0,-1.3975105E0,-5.497607E0,-1.28809E0,8.397022E-1,-4.738176E0,-3.454966E0,-1.4836763E0,-5.0851965E0,-2.8852985E0,1.4210913E0,5.432362E-1,-2.0066476E0,1.4357363E0,-4.7676376E-1,3.4905398E-1,2.0798311E0,-1.3345947E0,5.432362E-1],"split_indices":[0,1,3,3,3,1,0,0,3,1,2,0,0,0,1,3,3,3,2,2,2,2,0,3,0,2,3,3,2,0,1,3,3,2,0,0,2,3,3,0,1,3,0,1,0,0,3,3,0,2,0,1,1,0,0,0,2,2,0,2,3,0,1,0,0,0,0,0,0,0,0,0,0,0,0,0,0,0,0,0,0,0,0,0,0,0,0,0,0,0,0,0,0,0,0,0,0,0,0,0,0,0,0,0,0,0,0,0,0,0,0,0,0,0,0,0,0,0,0,0,0,0,0],"split_type":[0,0,0,0,0,0,0,0,0,0,0,0,0,0,0,0,0,0,0,0,0,0,0,0,0,0,0,0,0,0,0,0,0,0,0,0,0,0,0,0,0,0,0,0,0,0,0,0,0,0,0,0,0,0,0,0,0,0,0,0,0,0,0,0,0,0,0,0,0,0,0,0,0,0,0,0,0,0,0,0,0,0,0,0,0,0,0,0,0,0,0,0,0,0,0,0,0,0,0,0,0,0,0,0,0,0,0,0,0,0,0,0,0,0,0,0,0,0,0,0,0,0,0],"sum_hessian":[1.826E3,7.2E2,1.106E3,3.15E2,4.05E2,8.04E2,3.02E2,2.6E2,5.5E1,2.93E2,1.12E2,6.23E2,1.81E2,2.78E2,2.4E1,1.12E2,1.48E2,3.2E1,2.3E1,2.44E2,4.9E1,4E1,7.2E1,1.81E2,4.42E2,1.31E2,5E1,1.87E2,9.1E1,1.7E1,7E0,3.7E1,7.5E1,1.19E2,2.9E1,1.1E1,2.1E1,8E0,1.5E1,1.69E2,7.5E1,3.2E1,1.7E1,3.8E1,2E0,4E0,6.8E1,1.19E2,6.2E1,2.62E2,1.8E2,1.1E2,2.1E1,4.7E1,3E0,1.05E2,8.2E1,8E1,1.1E1,1.5E1,2E0,4E0,3E0,1.5E1,2.2E1,4.5E1,3E1,1.14E2,5E0,1.6E1,1.3E1,2E0,9E0,5E0,1.6E1,5E0,3E0,6E0,9E0,1.4E1,1.55E2,4.4E1,3.1E1,1E1,2.2E1,5E0,1.2E1,3E0,3.5E1,1E0,1E0,2E0,2E0,4.9E1,1.9E1,1.13E2,6E0,2.7E1,3.5E1,2.61E2,1E0,1.32E2,4.8E1,7.6E1,3.4E1,3E0,1.8E1,2.2E1,2.5E1,2.2E1,8.3E1,7E0,7.5E1,7.9E1,1E0,1E0,1.4E1,1E0,1E0,1E0,3E0,2E0,1E0],"tree_param":{"num_deleted":"0","num_feature":"4","num_nodes":"123","size_leaf_vector":"1"}},{"base_weights":[3.256919E-2,6.3751254E0,-3.4671712E0,1.3766694E1,9.521025E-1,-1.2849252E0,-7.5670786E0,1.5191423E1,2.0626502E0,4.138802E0,-7.0980005E0,7.2183795E-2,-5.259684E0,-8.244635E0,-1.2845154E0,1.8102036E1,1.2205245E1,3.8123262E0,-4.7324473E-1,7.3714113E0,2.7321872E-1,4.1019974E0,-7.9230204E0,4.691447E0,-1.674026E0,-6.3314605E0,1.9916008E0,-6.180162E0,-9.042321E0,-3.5705035E0,4.5374975E0,2.0170935E1,1.2383031E1,2.0194067E1,8.160639E0,1.3423094E0,-4.05177E0,1.3640562E1,6.1589165E0,6.0140486E0,-4.241337E0,1.0823398E1,-5.3252525E0,-6.3736424E0,-1.3126559E1,5.6135E0,-5.1934934E0,-3.4217176E0,1.1943629E0,-5.711085E0,-5.0590954E0,1.7186762E1,9.22219E-3,7.092804E-1,-6.45729E0,-9.603372E0,-6.0984697E0,1.5730034E0,-4.4223123E0,-2.2751381E0,9.728685E0,4.794487E0,8.573178E0,1.0658311E0,5.648427E0,7.70604E0,1.9162987E0,-1.4951704E0,2.612701E0,1.0464615E0,-1.4803979E0,1.3475504E0,-1.7043601E0,6.2234986E-1,5.9012485E0,2.8417923E0,1.0515606E0,3.0787244E0,-7.7268386E-1,-5.0059285E0,-7.7810544E-1,4.0569825E0,1.3547165E0,2.2299214E-1,-2.2787626E0,-2.1024325E0,1.3254209E0,-1.4715444E-1,-4.309692E0,1.931303E0,-1.846995E0,2.216388E0,-2.3718197E0,-9.087919E-1,-3.0301712E0,2.5217977E-1,3.5766485E0,-4.472827E0,-1.5608299E0,7.8122816E0,-7.823811E-2,-6.187848E-1,2.488419E0,-3.5993958E-1,7.1457976E-1,-1.9828357E0,2.3015824E-1,-4.6922746E0,-2.7815156E0,-2.4747899E0,-1.1618321E0,1.689334E0,-2.547907E-1,-1.5683273E0,3.9437285E-1,1.7163099E0,-2.3110447E0,3.3301802E0,2.2457944E-1],"categories":[],"categories_nodes":[],"categories_segments":[],"categories_sizes":[],"default_left":[0,0,0,0,0,0,0,0,0,0,0,0,0,0,0,0,0,0,0,0,0,0,0,0,0,0,0,0,0,0,0,0,0,0,0,0,0,0,0,0,0,0,0,0,0,0,0,0,0,0,0,0,0,0,0,0,0,0,0,0,0,0,0,0,0,0,0,0,0,0,0,0,0,0,0,0,0,0,0,0,0,0,0,0,0,0,0,0,0,0,0,0,0,0,0,0,0,0,0,0,0,0,0,0,0,0,0,0,0,0,0,0,0,0,0,0,0,0,0],"id":2,"left_children":[1,3,5,7,9,11,13,15,17,19,21,23,25,27,29,31,33,-1,35,37,39,41,43,45,47,49,51,53,55,57,59,61,63,65,67,69,71,73,75,77,79,81,83,85,87,89,91,93,95,97,-1,99,101,103,105,107,109,111,113,115,117,-1,-1,-1,-1,-1,-1,-1,-1,-1,-1,-1,-1,-1,-1,-1,-1,-1,-1,-1,-1,-1,-1,-1,-1,-1,-1,-1,-1,-1,-1,-1,-1,-1,-1,-1,-1,-1,-1,-1,-1,-1,-1,-1,-1,-1,-1,-1,-1,-1,-1,-1,-1,-1,-1,-1,-1,-1,-1],"loss_changes":[4.057657E4,2.6041914E4,1.0529852E4,4.5543125E3,9.675004E3,4.1538994E3,1.7304336E3,1.9085078E3,8.428546E2,3.3718848E3,1.0212036E3,4.64592E3,1.535874E3,5.517871E2,5.6187225E2,1.1937305E3,3.8418477E3,0E0,1.743609E2,1.0333823E3,3.2392524E3,5.645519E2,7.2256055E2,1.4692356E3,2.0995454E3,1.02098926E3,7.830281E2,2.0696167E2,3.7746875E2,1.3839487E2,4.4652216E2,2.6423594E3,1.9250122E3,2.9451504E3,6.4887646E2,2.5966803E2,1.5080986E2,1.5633613E3,1.0660063E3,2.033493E3,1.3920835E3,2.4082458E1,6.0763687E1,5.7187305E2,3.3740845E2,1.4462329E3,5.36203E2,6.5082544E2,5.9339984E2,6.845674E2,0E0,4.702425E2,4.2909842E2,1.8823963E1,1.1719824E2,2.955039E2,1.8347144E2,5.3932426E1,1.2701175E2,3.0450763E2,7.7929565E1,0E0,0E0,0E0,0E0,0E0,0E0,0E0,0E0,0E0,0E0,0E0,0E0,0E0,0E0,0E0,0E0,0E0,0E0,0E0,0E0,0E0,0E0,0E0,0E0,0E0,0E0,0E0,0E0,0E0,0E0,0E0,0E0,0E0,0E0,0E0,0E0,0E0,0E0,0E0,0E0,0E0,0E0,0E0,0E0,0E0,0E0,0E0,0E0,0E0,0E0,0E0,0E0,0E0,0E0,0E0,0E0,0E0,0E0],"parents":[2147483647,0,0,1,1,2,2,3,3,4,4,5,5,6,6,7,7,8,8,9,9,10,10,11,11,12,12,13,13,14,14,15,15,16,16,18,18,19,19,20,20,21,21,22,22,23,23,24,24,25,25,26,26,27,27,28,28,29,29,30,30,31,31,32,32,33,33,34,34,35,35,36,36,37,37,38,38,39,39,40,40,41,41,42,42,43,43,44,44,45,45,46,46,47,47,48,48,49,49,51,51,52,52,53,53,54,54,55,55,56,56,57,57,58,58,59,59,60,60],"right_children":[2,4,6,8,10,12,14,16,18,20,22,24,26,28,30,32,34,-1,36,38,40,42,44,46,48,50,52,54,56,58,60,62,64,66,68,70,72,74,76,78,80,82,84,86,88,90,92,94,96,98,-1,100,102,104,106,108,110,112,114,116,118,-1,-1,-1,-1,-1,-1,-1,-1,-1,-1,-1,-1,-1,-1,-1,-1,-1,-1,-1,-1,-1,-1,-1,-1,-1,-1,-1,-1,-1,-1,-1,-1,-1,-1,-1,-1,-1,-1,-1,-1,-1,-1,-1,-1,-1,-1,-1,-1,-1,-1,-1,-1,-1,-1,-1,-1,-1,-1],"split_conditions":[1.0081582E1,1E-1,2.8514102E2,2.9591763E2,3.0636588E2,2.9E0,2.3489916E1,6.0336666E0,7.8954163E0,5.8E0,6.9550843E0,1.4277415E1,2.1873251E1,3.0144864E2,1E-1,8.225035E0,2.069276E2,3.8123262E0,3.106012E2,5.8048253E0,6.2440834E0,6.8999996E0,3.3021762E2,1.2074766E1,2.2867002E1,1.503835E1,2.2044085E1,5.815978E0,2.1154497E1,6.87779E0,2.4475336E1,7.145796E0,8.913181E0,8.049845E0,2.0965308E2,7.71075E0,-8.7674993E-1,9E-1,1.2E0,8.217153E0,5.506941E0,5.937272E0,2.51075E0,9.314917E0,9E-1,2.816336E2,1.8508542E2,2.7589792E2,1.5000001E0,1.0369082E1,-5.0590954E0,5E0,2.4554504E1,1E-1,1.255879E1,6.0347E0,3.1446457E2,2.3942001E1,2.6921171E1,2.3942001E1,2.6921171E1,4.794487E0,8.573178E0,1.0658311E0,5.648427E0,7.70604E0,1.9162987E0,-1.4951704E0,2.612701E0,1.0464615E0,-1.4803979E0,1.3475504E0,-1.7043601E0,6.2234986E-1,5.9012485E0,2.8417923E0,1.0515606E0,3.0787244E0,-7.7268386E-1,-5.0059285E0,-7.7810544E-1,4.0569825E0,1.3547165E0,2.2299214E-1,-2.2787626E0,-2.1024325E0,1.3254209E0,-1.4715444E-1,-4.309692E0,1.931303E0,-1.846995E0,2.216388E0,-2.3718197E0,-9.087919E-1,-3.0301712E0,2.5217977E-1,3.5766485E0,-4.472827E0,-1.5608299E0,7.8122816E0,-7.823811E-2,-6.187848E-1,2.488419E0,-3.5993958E-1,7.1457976E-1,-1.9828357E0,2.3015824E-1,-4.6922746E0,-2.7815156E0,-2.4747899E0,-1.1618321E0,1.689334E0,-2.547907E-1,-1.5683273E0,3.9437285E-1,1.7163099E0,-2.3110447E0,3.3301802E0,2.2457944E-1],"split_indices":[0,1,3,3,3,1,0,0,2,1,2,0,0,3,1,2,3,0,3,2,0,1,3,2,0,2,0,2,0,2,0,2,2,2,3,0,0,1,1,2,2,2,0,0,1,3,3,3,1,0,0,1,0,1,2,2,3,0,0,0,0,0,0,0,0,0,0,0,0,0,0,0,0,0,0,0,0,0,0,0,0,0,0,0,0,0,0,0,0,0,0,0,0,0,0,0,0,0,0,0,0,0,0,0,0,0,0,0,0,0,0,0,0,0,0,0,0,0,0],"split_type":[0,0,0,0,0,0,0,0,0,0,0,0,0,0,0,0,0,0,0,0,0,0,0,0,0,0,0,0,0,0,0,0,0,0,0,0,0,0,0,0,0,0,0,0,0,0,0,0,0,0,0,0,0,0,0,0,0,0,0,0,0,0,0,0,0,0,0,0,0,0,0,0,0,0,0,0,0,0,0,0,0,0,0,0,0,0,0,0,0,0,0,0,0,0,0,0,0,0,0,0,0,0,0,0,0,0,0,0,0,0,0,0,0,0,0,0,0,0,0],"sum_hessian":[1.826E3,6.49E2,1.177E3,2.74E2,3.75E2,7.69E2,4.08E2,2.44E2,3E1,2.69E2,1.06E2,5.74E2,1.95E2,3.68E2,4E1,1.21E2,1.23E2,5E0,2.5E1,1.46E2,1.23E2,7E0,9.9E1,1.57E2,4.17E2,1.7E2,2.5E1,1.05E2,2.63E2,2.9E1,1.1E1,8.7E1,3.4E1,4E1,8.3E1,1.7E1,8E0,2.2E1,1.24E2,5.4E1,6.9E1,4E0,3E0,7.8E1,2.1E1,1.44E2,1.3E1,2.59E2,1.58E2,1.62E2,8E0,2E0,2.3E1,4E0,1.01E2,2.19E2,4.4E1,4E0,2.5E1,5E0,6E0,6E1,2.7E1,1.5E1,1.9E1,2.8E1,1.2E1,3E0,8E1,1.3E1,4E0,1E0,7E0,8E0,1.4E1,5.4E1,7E1,3.6E1,1.8E1,7E0,6.2E1,2E0,2E0,1E0,2E0,7.4E1,4E0,2E0,1.9E1,1.35E2,9E0,2E0,1.1E1,2.46E2,1.3E1,1.54E2,4E0,7E0,1.55E2,1E0,1E0,1.9E1,4E0,2E0,2E0,9.9E1,2E0,9E0,2.1E2,2.1E1,2.3E1,1E0,3E0,2.2E1,3E0,2E0,3E0,5E0,1E0],"tree_param":{"num_deleted":"0","num_feature":"4","num_nodes":"119","size_leaf_vector":"1"}},{"base_weights":[3.8094416E-2,4.1844296E0,-2.662489E0,9.265018E0,2.1977323E-1,-1.3742186E0,-6.076334E0,1.0879094E1,4.2005434E0,2.5566814E0,-5.788419E0,-8.6262625E-1,-4.70346E0,-7.221581E0,-4.167862E0,1.3400207E1,6.9841E0,1.2547542E1,9.0520084E-1,4.430298E0,-2.8512795E0,-6.177418E0,5.725273E0,2.0910253E-1,-2.618624E0,-5.679046E0,1.0044775E1,-6.4302363E0,-9.740529E0,-4.866114E0,-3.469897E-1,1.12469425E1,1.5844222E1,8.205418E0,-3.1993003E0,1.7763168E1,-1.1663982E0,-2.340569E0,6.175315E0,-7.092745E0,5.255863E0,4.751247E0,-6.036591E0,-1.8453135E0,-8.714081E0,1.5216945E0,-2.1718488E0,-4.21288E0,2.786017E-1,-6.0273056E0,7.7065253E0,1.2458687E1,8.019989E-1,-5.2740045E0,-9.467232E0,-4.434499E0,-3.5675979E0,-5.2064247E0,-1.7012542E0,2.0540361E0,-3.9051547E0,6.0005713E0,2.9131477E0,7.360554E-2,4.9785147E0,-3.5941643E-1,2.6776962E0,1.122234E0,-1.8808284E0,-1.3079728E0,5.8586106E0,-1.196207E0,1.1771996E0,2.8850038E0,-1.373812E0,3.6426668E0,5.695056E-1,-3.3430073E0,-9.4625586E-1,1.7145522E0,-2.5460715E0,3.33653E0,-1.9182607E0,-4.017739E0,-1.280342E0,2.1356452E0,-1.544759E0,1.4481194E-1,-2.7811043E0,1.4472502E0,1.5763867E-1,-2.7362487E0,-3.4019116E-1,-1.5179304E0,1.47962E0,-7.966563E-1,9.99496E-1,-2.0759525E0,-2.894349E-1,2.3423368E-1,3.233703E0,4.1654143E0,1.0131867E0,-1.6809187E0,4.4902782E0,-3.0166407E0,1.9328662E0,-2.64506E0,-3.0605927E-1,-1.912839E0,-1.2151142E0,1.1781418E0,-1.2908384E0,-4.113908E-2,1.5447286E0,1.1612201E0,-1.6706874E0],"categories":[],"categories_nodes":[],"categories_segments":[],"categories_sizes":[],"default_left":[0,0,0,0,0,0,0,0,0,0,0,0,0,0,0,0,0,0,0,0,0,0,0,0,0,0,0,0,0,0,0,0,0,0,0,0,0,0,0,0,0,0,0,0,0,0,0,0,0,0,0,0,0,0,0,0,0,0,0,0,0,0,0,0,0,0,0,0,0,0,0,0,0,0,0,0,0,0,0,0,0,0,0,0,0,0,0,0,0,0,0,0,0,0,0,0,0,0,0,0,0,0,0,0,0,0,0,0,0,0,0,0,0,0,0,0,0],"id":3,"left_children":[1,3,5,7,9,11,13,15,17,19,21,23,25,27,29,31,33,35,37,39,41,43,-1,45,47,49,51,53,55,57,59,61,63,65,67,69,71,73,75,77,79,81,83,85,87,89,91,93,95,97,99,101,-1,103,105,107,-1,109,111,113,115,-1,-1,-1,-1,-1,-1,-1,-1,-1,-1,-1,-1,-1,-1,-1,-1,-1,-1,-1,-1,-1,-1,-1,-1,-1,-1,-1,-1,-1,-1,-1,-1,-1,-1,-1,-1,-1,-1,-1,-1,-1,-1,-1,-1,-1,-1,-1,-1,-1,-1,-1,-1,-1,-1,-1,-1],"loss_changes":[2.0469018E4,1.4520913E4,4.860186E3,2.5374258E3,5.7152803E3,1.3670305E3,6.321592E2,2.2533262E3,2.134127E3,2.9814377E3,1.2208923E3,1.3160328E3,1.5965791E3,3.121172E2,3.0779163E2,5.7961523E2,1.2202192E3,1.5943086E3,9.894716E2,2.1111187E3,1.8691288E3,1.2256865E3,0E0,1.3627745E3,1.2251876E3,5.172761E2,9.125189E1,4.6274463E2,4.381416E2,9.6691895E1,1.7034302E2,8.818965E2,7.5720996E2,5.9314746E2,2.578288E2,7.100879E2,1.1616496E2,1.0077559E3,5.3839514E2,2.041554E2,1.3361929E3,1.704168E3,6.4543494E2,1.310163E3,3.6770166E2,9.219635E2,1.1075476E3,1.3493054E3,8.5985986E2,4.406538E2,5.5421722E1,1.7858948E1,0E0,8.0321533E2,4.2978394E2,2.0048318E2,0E0,9.3170654E1,1.7796507E2,8.208757E1,1.2505631E2,0E0,0E0,0E0,0E0,0E0,0E0,0E0,0E0,0E0,0E0,0E0,0E0,0E0,0E0,0E0,0E0,0E0,0E0,0E0,0E0,0E0,0E0,0E0,0E0,0E0,0E0,0E0,0E0,0E0,0E0,0E0,0E0,0E0,0E0,0E0,0E0,0E0,0E0,0E0,0E0,0E0,0E0,0E0,0E0,0E0,0E0,0E0,0E0,0E0,0E0,0E0,0E0,0E0,0E0,0E0,0E0],"parents":[2147483647,0,0,1,1,2,2,3,3,4,4,5,5,6,6,7,7,8,8,9,9,10,10,11,11,12,12,13,13,14,14,15,15,16,16,17,17,18,18,19,19,20,20,21,21,23,23,24,24,25,25,26,26,27,27,28,28,29,29,30,30,31,31,32,32,33,33,34,34,35,35,36,36,37,37,38,38,39,39,40,40,41,41,42,42,43,43,44,44,45,45,46,46,47,47,48,48,49,49,50,50,51,51,53,53,54,54,55,55,57,57,58,58,59,59,60,60],"right_children":[2,4,6,8,10,12,14,16,18,20,22,24,26,28,30,32,34,36,38,40,42,44,-1,46,48,50,52,54,56,58,60,62,64,66,68,70,72,74,76,78,80,82,84,86,88,90,92,94,96,98,100,102,-1,104,106,108,-1,110,112,114,116,-1,-1,-1,-1,-1,-1,-1,-1,-1,-1,-1,-1,-1,-1,-1,-1,-1,-1,-1,-1,-1,-1,-1,-1,-1,-1,-1,-1,-1,-1,-1,-1,-1,-1,-1,-1,-1,-1,-1,-1,-1,-1,-1,-1,-1,-1,-1,-1,-1,-1,-1,-1,-1,-1,-1,-1],"split_conditions":[1.0989917E1,2E-1,2.977795E2,2.792382E2,1.01376915E1,8.900001E0,1.9356585E1,7.6274166E0,7.9932976E0,2.9656494E2,1.0877418E1,2.2624533E2,2.378575E1,1.1966954E1,2.3942001E1,7.208994E0,2.5693066E2,8.189917E0,6.508667E0,1.5476718E2,3.9045E0,2.4999998E0,5.725273E0,2E-1,1E-1,2.929993E2,2.4794083E1,7.2999997E0,3.154286E2,8.500001E0,1.0239453E1,1.9875873E2,-8.7674993E-1,5.0142193E0,5.0142193E0,2.8087497E2,6.696387E0,8.836667E-1,8.054501E0,1.4714429E2,3.1900002E1,5.4E0,5.656584E0,3.058431E2,1.7635892E2,1.4277415E1,1.6351868E2,2.6921171E1,2.740855E2,2.1787832E1,1.4927417E1,2.9591763E2,8.019989E-1,7.1999993E0,1.1183201E1,3.0904587E2,-3.5675979E0,9.422101E0,1.9706583E1,3.0865982E2,3.0107895E2,6.0005713E0,2.9131477E0,7.360554E-2,4.9785147E0,-3.5941643E-1,2.6776962E0,1.122234E0,-1.8808284E0,-1.3079728E0,5.8586106E0,-1.196207E0,1.1771996E0,2.8850038E0,-1.373812E0,3.6426668E0,5.695056E-1,-3.3430073E0,-9.4625586E-1,1.7145522E0,-2.5460715E0,3.33653E0,-1.9182607E0,-4.017739E0,-1.280342E0,2.1356452E0,-1.544759E0,1.4481194E-1,-2.7811043E0,1.4472502E0,1.5763867E-1,-2.7362487E0,-3.4019116E-1,-1.5179304E0,1.47962E0,-7.966563E-1,9.99496E-1,-2.0759525E0,-2.894349E-1,2.3423368E-1,3.233703E0,4.1654143E0,1.0131867E0,-1.6809187E0,4.4902782E0,-3.0166407E0,1.9328662E0,-2.64506E0,-3.0605927E-1,-1.912839E0,-1.2151142E0,1.1781418E0,-1.2908384E0,-4.113908E-2,1.5447286E0,1.1612201E0,-1.6706874E0],"split_indices":[0,1,3,3,2,1,0,0,2,3,0,3,0,2,0,2,3,0,0,3,0,1,0,1,1,3,0,1,3,1,2,3,0,2,2,3,2,0,0,3,1,1,0,3,3,0,3,0,3,0,0,3,0,1,2,3,0,2,0,3,3,0,0,0,0,0,0,0,0,0,0,0,0,0,0,0,0,0,0,0,0,0,0,0,0,0,0,0,0,0,0,0,0,0,0,0,0,0,0,0,0,0,0,0,0,0,0,0,0,0,0,0,0,0,0,0,0],"split_type":[0,0,0,0,0,0,0,0,0,0,0,0,0,0,0,0,0,0,0,0,0,0,0,0,0,0,0,0,0,0,0,0,0,0,0,0,0,0,0,0,0,0,0,0,0,0,0,0,0,0,0,0,0,0,0,0,0,0,0,0,0,0,0,0,0,0,0,0,0,0,0,0,0,0,0,0,0,0,0,0,0,0,0,0,0,0,0,0,0,0,0,0,0,0,0,0,0,0,0,0,0,0,0,0,0,0,0,0,0,0,0,0,0,0,0,0,0],"sum_hessian":[1.826E3,7.2E2,1.106E3,3.15E2,4.05E2,8.04E2,3.02E2,2.38E2,7.7E1,2.92E2,1.13E2,6.98E2,1.06E2,1.87E2,1.15E2,1.43E2,9.5E1,2.1E1,5.6E1,2.17E2,7.5E1,1.12E2,1E0,4.34E2,2.64E2,1E2,6E0,1.45E2,4.2E1,9.7E1,1.8E1,7.9E1,6.4E1,8.5E1,1E1,1.5E1,6E0,3.5E1,2.1E1,1.4E1,2.03E2,2.2E1,5.3E1,4.2E1,7E1,2.8E2,1.54E2,1.7E2,9.4E1,9.8E1,2E0,4E0,2E0,1.07E2,3.8E1,1.3E1,2.9E1,8.7E1,1E1,1.1E1,7E0,1E1,6.9E1,3E0,6.1E1,6E0,7.9E1,3E0,7E0,1E0,1.4E1,4E0,2E0,5E0,3E1,8E0,1.3E1,6E0,8E0,1.97E2,6E0,1.4E1,8E0,9E0,4.4E1,1.1E1,3.1E1,4E0,6.6E1,6.4E1,2.16E2,1.9E1,1.35E2,1.56E2,1.4E1,4.8E1,4.6E1,8.3E1,1.5E1,1E0,1E0,3E0,1E0,1.06E2,1E0,3.7E1,1E0,5E0,8E0,4.1E1,4.6E1,3E0,7E0,7E0,4E0,1E0,6E0],"tree_param":{"num_deleted":"0","num_feature":"4","num_nodes":"117","size_leaf_vector":"1"}},{"base_weights":[3.717304E-2,3.4077115E0,-1.6675615E0,5.2561674E0,-2.396236E0,-5.073477E-1,-3.867711E0,7.5325375E0,2.2698724E0,-7.780053E-1,-7.102699E0,-7.8493096E-2,-4.690517E0,-4.1402397E0,1.7762471E0,2.5340466E1,7.0201807E0,3.7361097E0,-4.409358E0,5.715647E0,-2.0822754E0,-1.1699164E1,-3.933962E0,3.231007E0,-8.5772955E-1,-6.3993273E0,5.9284735E-1,-3.795426E0,-6.6492567E0,5.623644E0,-1.2573209E0,8.118207E0,2.2528708E0,6.6460323E0,8.735124E0,-1.2016585E1,4.2964807E0,7.3908167E0,-6.0636463E0,8.90082E0,-4.982999E0,-4.2786324E-1,-4.6194005E0,-1.2817169E1,-2.954759E0,-2.2375643E0,-9.932761E0,4.3506646E0,-5.578298E0,-1.2949494E0,2.138461E0,-1.1652566E1,-5.145461E0,3.834646E0,-5.512328E0,-3.2828877E0,-5.9028244E0,-1.3914617E0,-8.217154E0,3.5208628E0,6.113262E-1,-4.973877E0,3.2882147E0,-6.389444E-1,2.2084763E0,3.0287075E-1,-4.447119E0,1.1135443E0,4.147014E0,2.3868142E-1,2.6522155E0,-4.4274887E-1,-3.0884337E0,3.1886575E0,4.474497E-1,-3.3308952E0,2.9245412E0,-7.351019E-1,1.510285E0,-1.6280993E0,1.0200076E0,-4.567874E0,-2.2406614E0,-1.9922181E0,6.625766E-1,1.1542668E0,-1.0613208E0,-4.2490892E0,-7.172919E-1,1.2034382E0,6.8600397E0,1.307325E-1,-4.0118794E0,-3.3150077E-1,-2.3918102E0,8.9439854E-2,2.155337E0,-8.101522E-1,-3.7041552E0,-8.5266715E-1,-2.8291037E0,-2.034874E-2,1.8846514E0,-2.2268074E0,8.924773E-1,-1.0310688E0,3.7326546E0,-2.2713754E0,-4.560108E-1,5.176118E-1,-1.1592761E0,-2.5383854E0,4.911633E-2,7.478242E-1,-6.303032E-1,-2.0012646E0,7.8122294E-1,2.239596E0,-1.0131991E0],"categories":[],"categories_nodes":[],"categories_segments":[],"categories_sizes":[],"default_left":[0,0,0,0,0,0,0,0,0,0,0,0,0,0,0,0,0,0,0,0,0,0,0,0,0,0,0,0,0,0,0,0,0,0,0,0,0,0,0,0,0,0,0,0,0,0,0,0,0,0,0,0,0,0,0,0,0,0,0,0,0,0,0,0,0,0,0,0,0,0,0,0,0,0,0,0,0,0,0,0,0,0,0,0,0,0,0,0,0,0,0,0,0,0,0,0,0,0,0,0,0,0,0,0,0,0,0,0,0,0,0,0,0,0,0,0,0,0,0],"id":4,"left_children":[1,3,5,7,9,11,13,15,17,19,21,23,25,27,29,31,33,35,37,39,41,43,45,47,49,51,53,55,57,59,61,-1,-1,63,-1,65,67,69,71,73,75,77,79,81,83,85,87,89,91,93,95,97,99,101,103,105,107,109,111,-1,113,115,117,-1,-1,-1,-1,-1,-1,-1,-1,-1,-1,-1,-1,-1,-1,-1,-1,-1,-1,-1,-1,-1,-1,-1,-1,-1,-1,-1,-1,-1,-1,-1,-1,-1,-1,-1,-1,-1,-1,-1,-1,-1,-1,-1,-1,-1,-1,-1,-1,-1,-1,-1,-1,-1,-1,-1,-1],"loss_changes":[1.0503394E4,6.599796E3,3.0969473E3,3.1507295E3,1.1292793E3,1.4276328E3,6.5183496E2,2.2308447E3,2.0045212E3,9.604829E2,5.074458E2,1.8673041E3,6.7188574E2,3.208203E2,2.404975E2,1.1497559E1,1.9395049E3,1.5257964E3,7.670884E2,6.918163E2,3.9258386E2,1.08772705E2,2.220072E2,1.3854193E3,7.704257E2,3.089065E2,3.9718106E2,3.6298486E2,3.7601904E2,2.6856842E2,2.1908002E2,0E0,0E0,1.6169766E3,0E0,2.3436346E2,8.510393E2,4.077832E1,6.2539136E2,1.7620105E2,5.59019E2,6.5306525E2,2.5808118E2,5.3774902E1,7.1762436E1,1.7184564E2,1.2567673E2,6.808032E2,7.5586755E2,6.406199E2,6.943296E2,2.8838745E1,4.370448E2,1.2459444E2,1.3557805E2,7.378159E2,4.8573218E2,9.915468E1,7.5042725E1,0E0,3.5855576E1,1.07390274E2,1.9226892E2,0E0,0E0,0E0,0E0,0E0,0E0,0E0,0E0,0E0,0E0,0E0,0E0,0E0,0E0,0E0,0E0,0E0,0E0,0E0,0E0,0E0,0E0,0E0,0E0,0E0,0E0,0E0,0E0,0E0,0E0,0E0,0E0,0E0,0E0,0E0,0E0,0E0,0E0,0E0,0E0,0E0,0E0,0E0,0E0,0E0,0E0,0E0,0E0,0E0,0E0,0E0,0E0,0E0,0E0,0E0,0E0],"parents":[2147483647,0,0,1,1,2,2,3,3,4,4,5,5,6,6,7,7,8,8,9,9,10,10,11,11,12,12,13,13,14,14,15,15,16,16,17,17,18,18,19,19,20,20,21,21,22,22,23,23,24,24,25,25,26,26,27,27,28,28,29,29,30,30,33,33,35,35,36,36,37,37,38,38,39,39,40,40,41,41,42,42,43,43,44,44,45,45,46,46,47,47,48,48,49,49,50,50,51,51,52,52,53,53,54,54,55,55,56,56,57,57,58,58,60,60,61,61,62,62],"right_children":[2,4,6,8,10,12,14,16,18,20,22,24,26,28,30,32,34,36,38,40,42,44,46,48,50,52,54,56,58,60,62,-1,-1,64,-1,66,68,70,72,74,76,78,80,82,84,86,88,90,92,94,96,98,100,102,104,106,108,110,112,-1,114,116,118,-1,-1,-1,-1,-1,-1,-1,-1,-1,-1,-1,-1,-1,-1,-1,-1,-1,-1,-1,-1,-1,-1,-1,-1,-1,-1,-1,-1,-1,-1,-1,-1,-1,-1,-1,-1,-1,-1,-1,-1,-1,-1,-1,-1,-1,-1,-1,-1,-1,-1,-1,-1,-1,-1,-1,-1],"split_conditions":[9.656584E0,3.0088098E2,2.8514102E2,6E-1,7.3999996E0,1.4100001E1,2.5227419E1,1.6156497E2,9.504272E0,8.311245E0,1.1200001E1,1.25295E1,1.9060751E1,1.2819235E1,8.435069E0,8.333667E0,5E-1,7E-1,1.2E0,8.600333E0,1.2475961E1,1.3339445E1,2.35E1,1.1090103E1,2.5783669E1,1.4714429E2,3.1299997E1,7.2999997E0,3.1446457E2,2.5783669E1,1.0041354E1,8.118207E0,2.2528708E0,1.8540826E2,8.735124E0,1.9113625E2,9.339208E0,2.1878333E0,2.0013644E2,3.2016052E2,9.314917E0,1.1435313E1,8.97325E0,6.6961665E0,5.514917E0,3.0480853E2,2.4400002E1,1.0805998E1,2.0013644E2,1.4003029E1,9.659814E0,1.8199999E1,9.387651E0,1.94E1,2.2642E1,7.1999993E0,1.9244083E1,1.2037833E1,5.4E0,3.5208628E0,7.928177E0,1E-1,3.0107895E2,-6.389444E-1,2.2084763E0,3.0287075E-1,-4.447119E0,1.1135443E0,4.147014E0,2.3868142E-1,2.6522155E0,-4.4274887E-1,-3.0884337E0,3.1886575E0,4.474497E-1,-3.3308952E0,2.9245412E0,-7.351019E-1,1.510285E0,-1.6280993E0,1.0200076E0,-4.567874E0,-2.2406614E0,-1.9922181E0,6.625766E-1,1.1542668E0,-1.0613208E0,-4.2490892E0,-7.172919E-1,1.2034382E0,6.8600397E0,1.307325E-1,-4.0118794E0,-3.3150077E-1,-2.3918102E0,8.9439854E-2,2.155337E0,-8.101522E-1,-3.7041552E0,-8.5266715E-1,-2.8291037E0,-2.034874E-2,1.8846514E0,-2.2268074E0,8.924773E-1,-1.0310688E0,3.7326546E0,-2.2713754E0,-4.560108E-1,5.176118E-1,-1.1592761E0,-2.5383854E0,4.911633E-2,7.478242E-1,-6.303032E-1,-2.0012646E0,7.8122294E-1,2.239596E0,-1.0131991E0],"split_indices":[0,3,3,1,1,1,0,3,2,2,1,0,0,2,2,0,1,1,1,0,2,2,1,2,0,3,1,1,3,0,2,0,0,3,0,3,2,0,3,3,0,2,0,0,0,3,1,2,3,2,2,1,2,1,0,1,0,0,1,0,2,1,3,0,0,0,0,0,0,0,0,0,0,0,0,0,0,0,0,0,0,0,0,0,0,0,0,0,0,0,0,0,0,0,0,0,0,0,0,0,0,0,0,0,0,0,0,0,0,0,0,0,0,0,0,0,0,0,0],"split_type":[0,0,0,0,0,0,0,0,0,0,0,0,0,0,0,0,0,0,0,0,0,0,0,0,0,0,0,0,0,0,0,0,0,0,0,0,0,0,0,0,0,0,0,0,0,0,0,0,0,0,0,0,0,0,0,0,0,0,0,0,0,0,0,0,0,0,0,0,0,0,0,0,0,0,0,0,0,0,0,0,0,0,0,0,0,0,0,0,0,0,0,0,0,0,0,0,0,0,0,0,0,0,0,0,0,0,0,0,0,0,0,0,0,0,0,0,0,0,0],"sum_hessian":[1.826E3,6.13E2,1.213E3,4.65E2,1.48E2,7.95E2,4.18E2,2.63E2,2.02E2,1.11E2,3.7E1,7.22E2,7.3E1,3.99E2,1.9E1,6E0,2.57E2,1.66E2,3.6E1,1.8E1,9.3E1,1.4E1,2.3E1,1.37E2,5.85E2,5.5E1,1.8E1,3.53E2,4.6E1,8E0,1.1E1,5E0,1E0,2.54E2,3E0,5E0,1.61E2,4E0,3.2E1,1.4E1,4E0,5.7E1,3.6E1,1.2E1,2E0,1.9E1,4E0,1.22E2,1.5E1,5.11E2,7.4E1,9E0,4.6E1,1.2E1,6E0,2.86E2,6.7E1,1.1E1,3.5E1,3E0,5E0,6E0,5E0,1.9E1,2.35E2,1E0,4E0,1.53E2,8E0,1E0,3E0,1.6E1,1.6E1,1.1E1,3E0,3E0,1E0,4.2E1,1.5E1,3.3E1,3E0,7E0,5E0,1E0,1E0,3E0,1.6E1,2E0,2E0,1.21E2,1E0,9E0,6E0,4.98E2,1.3E1,5.5E1,1.9E1,1E0,8E0,3.1E1,1.5E1,5E0,7E0,5E0,1E0,2.84E2,2E0,4.8E1,1.9E1,5E0,6E0,3.4E1,1E0,3E0,2E0,5E0,1E0,3E0,2E0],"tree_param":{"num_deleted":"0","num_feature":"4","num_nodes":"119","size_leaf_vector":"1"}},{"base_weights":[3.0434368E-2,2.3063858E0,-1.2254221E0,3.5136123E0,-2.1569693E0,-3.3073753E-1,-2.6463587E0,4.999084E0,1.8423735E-1,-1.1701906E0,-5.8595715E0,-5.0099516E-1,7.7501736E0,-3.0423567E0,6.220716E-1,5.5229573E0,-8.428419E-1,-1.4144229E1,1.0370318E0,-1.7072091E0,4.4244165E0,1.8971729E0,-6.8275485E0,3.7017742E-1,-2.1872718E0,-2.4849454E-1,1.978959E1,-7.9418564E0,-2.8985767E0,4.801948E0,-4.125829E-1,4.183604E0,8.138707E0,-9.423951E0,1.6951002E0,-1.6677456E1,9.1823906E-1,3.317943E0,-5.598353E0,-5.134878E-1,-5.176799E0,-1.8307236E0,7.8189254E0,-3.7822524E-1,1.0110193E0,-1.0947759E1,-5.325224E0,2.1943188E0,-1.3209133E0,-3.0564077E0,8.233612E-1,3.3800929E0,-6.7932634E0,7.096741E0,6.877871E-2,-8.284346E0,-6.775455E-1,-7.145061E0,-2.7472672E0,1.825613E0,3.3414578E0,-1.0212783E0,4.174279E0,2.5988069E0,7.601363E-1,2.1330526E0,4.9966846E0,-3.1654377E0,-3.9883634E-1,-1.0341109E0,2.425661E0,-1.2243485E0,-5.368171E0,2.281169E0,1.078449E-2,-2.4525816E0,-8.2245475E-1,-3.235593E-1,4.1351266E0,-7.77437E-1,-3.5471845E0,-2.349552E0,3.352075E0,-1.0406791E0,-4.1459823E0,8.964222E-1,-2.0630333E0,-2.6318576E0,7.599901E-1,-9.5535725E-1,4.008965E-2,-2.708028E0,-8.1173813E-1,-6.060529E-1,9.26993E-1,-2.8753886E0,3.702965E-2,-2.8032444E0,-1.3075817E0,-2.5691352E0,1.3158228E-1,1.6712412E0,-8.7494725E-1,1.6427827E0,-9.114609E-2,9.4309336E-1,-5.310859E-1,4.8299793E-2,1.5412048E0],"categories":[],"categories_nodes":[],"categories_segments":[],"categories_sizes":[],"default_left":[0,0,0,0,0,0,0,0,0,0,0,0,0,0,0,0,0,0,0,0,0,0,0,0,0,0,0,0,0,0,0,0,0,0,0,0,0,0,0,0,0,0,0,0,0,0,0,0,0,0,0,0,0,0,0,0,0,0,0,0,0,0,0,0,0,0,0,0,0,0,0,0,0,0,0,0,0,0,0,0,0,0,0,0,0,0,0,0,0,0,0,0,0,0,0,0,0,0,0,0,0,0,0,0,0,0,0,0,0],"id":5,"left_children":[1,3,5,7,9,11,13,15,17,19,21,23,25,27,29,31,33,35,37,39,41,43,45,47,49,51,53,55,57,59,61,63,65,67,69,71,-1,73,75,77,79,-1,81,-1,-1,83,85,87,89,91,93,-1,95,-1,-1,97,-1,99,101,103,-1,105,107,-1,-1,-1,-1,-1,-1,-1,-1,-1,-1,-1,-1,-1,-1,-1,-1,-1,-1,-1,-1,-1,-1,-1,-1,-1,-1,-1,-1,-1,-1,-1,-1,-1,-1,-1,-1,-1,-1,-1,-1,-1,-1,-1,-1,-1,-1],"loss_changes":[5.224883E3,3.5099612E3,1.4967045E3,2.5312744E3,5.010003E2,9.9998865E2,5.907954E2,1.0880459E3,1.9575265E3,3.4104263E2,2.3069531E2,1.0438267E3,1.4494072E3,2.6298633E2,2.1821762E2,1.1045605E3,6.693254E2,4.4330457E2,2.3039182E3,4.197975E2,4.050484E2,2.2853928E1,1.0263794E2,1.4496643E3,6.357456E2,8.302004E2,4.48323E2,2.701294E0,2.3481396E2,1.6825381E2,1.1873516E2,1.5816089E3,8.3640576E2,4.985852E1,8.16523E2,4.9553955E1,0E0,1.5892383E3,2.646991E2,6.3691534E2,4.161728E2,0E0,5.0753342E2,0E0,0E0,8.094281E1,2.9141748E2,8.624176E2,6.618379E2,3.69114E2,3.6072855E2,0E0,1.3633221E2,0E0,0E0,8.775635E-1,0E0,1.436247E2,5.56771E2,6.3848763E1,0E0,1.2098889E2,1.8498238E1,0E0,0E0,0E0,0E0,0E0,0E0,0E0,0E0,0E0,0E0,0E0,0E0,0E0,0E0,0E0,0E0,0E0,0E0,0E0,0E0,0E0,0E0,0E0,0E0,0E0,0E0,0E0,0E0,0E0,0E0,0E0,0E0,0E0,0E0,0E0,0E0,0E0,0E0,0E0,0E0,0E0,0E0,0E0,0E0,0E0,0E0],"parents":[2147483647,0,0,1,1,2,2,3,3,4,4,5,5,6,6,7,7,8,8,9,9,10,10,11,11,12,12,13,13,14,14,15,15,16,16,17,17,18,18,19,19,20,20,21,21,22,22,23,23,24,24,25,25,26,26,27,27,28,28,29,29,30,30,31,31,32,32,33,33,34,34,35,35,37,37,38,38,39,39,40,40,42,42,45,45,46,46,47,47,48,48,49,49,50,50,52,52,55,55,57,57,58,58,59,59,61,61,62,62],"right_children":[2,4,6,8,10,12,14,16,18,20,22,24,26,28,30,32,34,36,38,40,42,44,46,48,50,52,54,56,58,60,62,64,66,68,70,72,-1,74,76,78,80,-1,82,-1,-1,84,86,88,90,92,94,-1,96,-1,-1,98,-1,100,102,104,-1,106,108,-1,-1,-1,-1,-1,-1,-1,-1,-1,-1,-1,-1,-1,-1,-1,-1,-1,-1,-1,-1,-1,-1,-1,-1,-1,-1,-1,-1,-1,-1,-1,-1,-1,-1,-1,-1,-1,-1,-1,-1,-1,-1,-1,-1,-1,-1],"split_conditions":[1.0081582E1,1.0041354E1,2.776089E2,2.8087497E2,1.0099999E1,2.740855E2,2.3489916E1,1.7500002E1,2.8226474E2,6.200001E0,2.3232498E0,1E0,7.5942073E0,5.3999996E0,6.924738E0,7.5685663E0,1.98E1,4.2E0,6.4E0,2.4999998E0,1.0703569E1,1.1700001E1,1.0495713E1,1.9440002E2,1.9775335E1,2.7489902E2,2.2044085E1,2.23E1,2.792382E2,6.87779E0,7E-1,1.9875873E2,2.7697333E2,8.600333E0,1.7695822E2,-8.7674993E-1,9.1823906E-1,5.2545E0,3.0443903E2,2.4E0,8.417E0,-1.8307236E0,1.9181178E2,-3.7822524E-1,1.0110193E0,4.339917E0,1.9469727E2,5.3517847E0,7.072878E0,1.0369082E1,2.026033E2,3.3800929E0,1E-1,7.096741E0,6.877871E-2,2.0071167E1,-6.775455E-1,1.0446206E1,2.816336E2,2.3942001E1,3.3414578E0,2.829426E2,2.7881284E2,2.5988069E0,7.601363E-1,2.1330526E0,4.9966846E0,-3.1654377E0,-3.9883634E-1,-1.0341109E0,2.425661E0,-1.2243485E0,-5.368171E0,2.281169E0,1.078449E-2,-2.4525816E0,-8.2245475E-1,-3.235593E-1,4.1351266E0,-7.77437E-1,-3.5471845E0,-2.349552E0,3.352075E0,-1.0406791E0,-4.1459823E0,8.964222E-1,-2.0630333E0,-2.6318576E0,7.599901E-1,-9.5535725E-1,4.008965E-2,-2.708028E0,-8.1173813E-1,-6.060529E-1,9.26993E-1,-2.8753886E0,3.702965E-2,-2.8032444E0,-1.3075817E0,-2.5691352E0,1.3158228E-1,1.6712412E0,-8.7494725E-1,1.6427827E0,-9.114609E-2,9.4309336E-1,-5.310859E-1,4.8299793E-2,1.5412048E0],"split_indices":[0,2,3,3,1,3,0,1,3,1,0,1,2,2,2,2,1,1,1,1,2,1,2,3,0,3,0,1,3,2,1,3,3,0,3,0,0,0,3,1,0,0,3,0,0,0,3,2,2,0,3,0,1,0,0,0,0,2,3,0,0,3,3,0,0,0,0,0,0,0,0,0,0,0,0,0,0,0,0,0,0,0,0,0,0,0,0,0,0,0,0,0,0,0,0,0,0,0,0,0,0,0,0,0,0,0,0,0,0],"split_type":[0,0,0,0,0,0,0,0,0,0,0,0,0,0,0,0,0,0,0,0,0,0,0,0,0,0,0,0,0,0,0,0,0,0,0,0,0,0,0,0,0,0,0,0,0,0,0,0,0,0,0,0,0,0,0,0,0,0,0,0,0,0,0,0,0,0,0,0,0,0,0,0,0,0,0,0,0,0,0,0,0,0,0,0,0,0,0,0,0,0,0,0,0,0,0,0,0,0,0,0,0,0,0,0,0,0,0,0,0],"sum_hessian":[1.826E3,6.49E2,1.177E3,5.11E2,1.38E2,7.23E2,4.54E2,3.53E2,1.58E2,1.1E2,2.8E1,7.09E2,1.4E1,4.05E2,4.9E1,3.24E2,2.9E1,8E0,1.5E2,1.01E2,9E0,3E0,2.5E1,4.68E2,2.41E2,9E0,5E0,1E1,3.95E2,9E0,4E1,2.16E2,1.08E2,6E0,2.3E1,7E0,1E0,1.12E2,3.8E1,7.6E1,2.5E1,2E0,7E0,1E0,2E0,5E0,2E1,2.25E2,2.43E2,1.87E2,5.4E1,3E0,6E0,4E0,1E0,9E0,1E0,1.2E1,3.83E2,7E0,2E0,3.6E1,4E0,5.7E1,1.59E2,9.8E1,1E1,5E0,1E0,1.3E1,1E1,1E0,6E0,4.8E1,6.4E1,1.9E1,1.9E1,7.4E1,2E0,1.9E1,6E0,1E0,6E0,2E0,3E0,3E0,1.7E1,6E0,2.19E2,1.06E2,1.37E2,9E0,1.78E2,2.4E1,3E1,4E0,2E0,6E0,3E0,1E1,2E0,7E0,3.76E2,2E0,5E0,5E0,3.1E1,1E0,3E0],"tree_param":{"num_deleted":"0","num_feature":"4","num_nodes":"109","size_leaf_vector":"1"}},{"base_weights":[1.9543055E-2,1.5241477E0,-9.6043843E-1,3.8525498E0,-2.0198148E-1,-1.1413191E-1,-1.6858554E0,5.102397E0,1.5678017E0,3.2773767E0,-9.6664387E-1,-3.9292228E-1,7.5589437E0,-5.2841935E0,-1.4587598E0,1.1574787E1,3.492862E0,-6.705491E0,3.0473568E0,1.00800626E-1,7.3172374E0,3.3930438E0,-1.6579615E0,-3.163532E0,7.8485325E-2,7.157987E0,5.1965337E0,-1.1362208E1,-1.6190462E0,-1.5680008E0,5.427714E0,3.792927E0,2.2524155E1,2.659317E0,1.5730103E1,-9.459123E0,1.7950493E0,7.6181955E0,-9.5586395E-1,-5.676675E0,3.085674E0,8.988055E0,-7.0432053E0,-4.7534103E0,5.7232585E0,-1.8278239E0,6.828386E0,4.170552E0,-3.59969E0,3.1790428E0,-8.264752E-1,-2.7767282E0,6.678287E0,-4.8574038E0,-4.909899E0,2.8411138E0,-2.553583E0,6.7589197E0,-1.6408491E0,-3.4090635E-1,1.9170802E0,4.15279E0,-3.4783792E-1,7.230387E0,2.2968411E0,1.4901212E0,-9.243628E-2,5.8842525E0,3.876305E-2,-3.2425997E0,-4.073273E-1,1.0482062E0,-7.5012535E-1,3.078559E0,7.051234E-1,-3.9176738E0,1.0560956E-1,-2.5602741E0,2.5795078E0,2.1178348E0,-9.3963844E-1,1.8602748E0,5.730938E0,-2.915127E0,1.4676705E-1,-2.523169E0,3.9518616E-1,2.2241147E0,-3.0229309E0,3.230593E-2,-7.5471145E-1,-8.579852E-1,5.241012E0,-3.037817E-1,-1.6085702E0,4.749618E0,5.546577E-1,-1.7059585E0,-9.0545066E-2,5.207189E0,8.6361724E-1,3.588255E-1,-1.8380733E0,-1.1080773E0,3.3061123E-1,-1.4734269E-2,2.5419621E0,-4.3693003E-1,-1.1185589E0],"categories":[],"categories_nodes":[],"categories_segments":[],"categories_sizes":[],"default_left":[0,0,0,0,0,0,0,0,0,0,0,0,0,0,0,0,0,0,0,0,0,0,0,0,0,0,0,0,0,0,0,0,0,0,0,0,0,0,0,0,0,0,0,0,0,0,0,0,0,0,0,0,0,0,0,0,0,0,0,0,0,0,0,0,0,0,0,0,0,0,0,0,0,0,0,0,0,0,0,0,0,0,0,0,0,0,0,0,0,0,0,0,0,0,0,0,0,0,0,0,0,0,0,0,0,0,0,0,0],"id":6,"left_children":[1,3,5,7,9,11,13,15,17,19,21,23,25,27,29,31,33,35,37,39,41,43,45,47,49,-1,51,53,55,57,59,61,63,65,67,69,71,73,75,77,79,81,83,85,87,89,91,-1,93,95,97,-1,99,-1,101,-1,103,105,107,-1,-1,-1,-1,-1,-1,-1,-1,-1,-1,-1,-1,-1,-1,-1,-1,-1,-1,-1,-1,-1,-1,-1,-1,-1,-1,-1,-1,-1,-1,-1,-1,-1,-1,-1,-1,-1,-1,-1,-1,-1,-1,-1,-1,-1,-1,-1,-1,-1,-1],"loss_changes":[2.6953472E3,2.898566E3,6.794226E2,8.686655E2,1.1072899E3,1.09823E3,4.7932275E2,2.0222432E3,1.3669211E3,9.617318E2,1.033375E3,6.467611E2,5.691852E2,7.612927E2,4.3129504E2,3.2376187E3,1.5902148E3,4.1490466E2,1.7273011E3,7.5905286E2,8.550962E2,9.194055E2,4.3772723E2,5.859524E2,1.1923214E3,0E0,4.2586313E2,3.255702E2,2.6254327E2,3.4714807E2,6.412598E1,1.2105306E3,1.9065967E2,1.0355957E3,6.034155E2,1.274552E2,4.5225883E1,5.88636E2,8.1190295E2,6.8525946E2,7.3864734E2,7.273064E2,8.5317184E1,2.5529533E2,1.0629254E3,3.863769E2,6.68563E2,0E0,3.1825867E2,1.5864897E3,8.3719006E2,0E0,5.992422E2,0E0,5.9345673E1,0E0,9.575409E1,5.8770767E1,2.0632031E2,0E0,0E0,0E0,0E0,0E0,0E0,0E0,0E0,0E0,0E0,0E0,0E0,0E0,0E0,0E0,0E0,0E0,0E0,0E0,0E0,0E0,0E0,0E0,0E0,0E0,0E0,0E0,0E0,0E0,0E0,0E0,0E0,0E0,0E0,0E0,0E0,0E0,0E0,0E0,0E0,0E0,0E0,0E0,0E0,0E0,0E0,0E0,0E0,0E0,0E0],"parents":[2147483647,0,0,1,1,2,2,3,3,4,4,5,5,6,6,7,7,8,8,9,9,10,10,11,11,12,12,13,13,14,14,15,15,16,16,17,17,18,18,19,19,20,20,21,21,22,22,23,23,24,24,26,26,27,27,28,28,29,29,30,30,31,31,32,32,33,33,34,34,35,35,36,36,37,37,38,38,39,39,40,40,41,41,42,42,43,43,44,44,45,45,46,46,48,48,49,49,50,50,52,52,54,54,56,56,57,57,58,58],"right_children":[2,4,6,8,10,12,14,16,18,20,22,24,26,28,30,32,34,36,38,40,42,44,46,48,50,-1,52,54,56,58,60,62,64,66,68,70,72,74,76,78,80,82,84,86,88,90,92,-1,94,96,98,-1,100,-1,102,-1,104,106,108,-1,-1,-1,-1,-1,-1,-1,-1,-1,-1,-1,-1,-1,-1,-1,-1,-1,-1,-1,-1,-1,-1,-1,-1,-1,-1,-1,-1,-1,-1,-1,-1,-1,-1,-1,-1,-1,-1,-1,-1,-1,-1,-1,-1,-1,-1,-1,-1,-1,-1],"split_conditions":[1.0989917E1,1E-1,2.2624533E2,8.089993E0,6.2145634E0,2.2134773E2,5.6920996E0,1.9642477E2,1.961356E2,5.6920996E0,1.7442789E2,1.6351868E2,1.1356583E1,1.6700335E1,2.7871168E1,1.8465749E2,7.928177E0,9.844083E0,2.7813E2,2.0639745E2,1.4500001E1,1.5476718E2,1.0877418E1,1.1075334E1,1.8000005E2,7.157987E0,4.2136917E0,2.734601E2,1.7067E1,5.7628117E0,7.289445E0,1.6351868E2,7.7879906E0,6.519877E0,6.0336666E0,1.9315436E2,1.0877418E1,7.4065833E0,8.759178E0,5.506941E0,5.2478566E0,9.292001E0,6.12E0,1.94E1,2.95E1,1.2E0,9.726664E0,4.170552E0,1E-1,1.31294985E1,1.8345653E2,-2.7767282E0,5.634891E0,-4.8574038E0,2.7589792E2,2.8411138E0,2.2450333E1,2.267715E2,1.2819235E1,-3.4090635E-1,1.9170802E0,4.15279E0,-3.4783792E-1,7.230387E0,2.2968411E0,1.4901212E0,-9.243628E-2,5.8842525E0,3.876305E-2,-3.2425997E0,-4.073273E-1,1.0482062E0,-7.5012535E-1,3.078559E0,7.051234E-1,-3.9176738E0,1.0560956E-1,-2.5602741E0,2.5795078E0,2.1178348E0,-9.3963844E-1,1.8602748E0,5.730938E0,-2.915127E0,1.4676705E-1,-2.523169E0,3.9518616E-1,2.2241147E0,-3.0229309E0,3.230593E-2,-7.5471145E-1,-8.579852E-1,5.241012E0,-3.037817E-1,-1.6085702E0,4.749618E0,5.546577E-1,-1.7059585E0,-9.0545066E-2,5.207189E0,8.6361724E-1,3.588255E-1,-1.8380733E0,-1.1080773E0,3.3061123E-1,-1.4734269E-2,2.5419621E0,-4.3693003E-1,-1.1185589E0],"split_indices":[0,1,3,2,2,3,2,3,3,2,3,3,0,0,0,3,2,0,3,3,1,3,0,0,3,0,2,3,0,2,2,3,2,2,0,3,0,0,2,2,2,0,2,1,1,1,2,0,1,0,3,0,2,0,3,0,0,3,2,0,0,0,0,0,0,0,0,0,0,0,0,0,0,0,0,0,0,0,0,0,0,0,0,0,0,0,0,0,0,0,0,0,0,0,0,0,0,0,0,0,0,0,0,0,0,0,0,0,0],"split_type":[0,0,0,0,0,0,0,0,0,0,0,0,0,0,0,0,0,0,0,0,0,0,0,0,0,0,0,0,0,0,0,0,0,0,0,0,0,0,0,0,0,0,0,0,0,0,0,0,0,0,0,0,0,0,0,0,0,0,0,0,0,0,0,0,0,0,0,0,0,0,0,0,0,0,0,0,0,0,0,0,0,0,0,0,0,0,0,0,0,0,0,0,0,0,0,0,0,0,0,0,0,0,0,0,0,0,0,0,0],"sum_hessian":[1.826E3,7.2E2,1.106E3,3.06E2,4.14E2,5.11E2,5.95E2,1.97E2,1.09E2,7.4E1,3.4E2,4.94E2,1.7E1,3.4E1,5.61E2,3.8E1,1.59E2,1.6E1,9.3E1,4.2E1,3.2E1,4.6E1,2.94E2,7.1E1,4.23E2,1E0,1.6E1,1.2E1,2.2E1,5.53E2,8E0,2.3E1,1.5E1,1.5E2,9E0,1.2E1,4E0,4.3E1,5E1,1.4E1,2.8E1,2.9E1,3E0,1E1,3.6E1,2.89E2,5E0,1E0,7E1,9.5E1,3.28E2,1E0,1.5E1,6E0,6E0,1E0,2.1E1,4E0,5.49E2,1E0,7E0,7E0,1.6E1,1.3E1,2E0,8.4E1,6.6E1,7E0,2E0,1E1,2E0,3E0,1E0,2.8E1,1.5E1,4E0,4.6E1,1.2E1,2E0,1.7E1,1.1E1,2.4E1,5E0,2E0,1E0,6E0,4E0,3.3E1,3E0,7.6E1,2.13E2,3E0,2E0,2.9E1,4.1E1,8E0,8.7E1,3.1E1,2.97E2,3E0,1.2E1,1E0,5E0,1.6E1,5E0,1E0,3E0,5.06E2,4.3E1],"tree_param":{"num_deleted":"0","num_feature":"4","num_nodes":"109","size_leaf_vector":"1"}},{"base_weights":[3.4764037E-2,1.0080342E0,-7.711384E-1,2.212772E0,-4.8921624E-1,-6.4046746E-1,-4.7039204E0,1.2493899E1,1.9324454E0,1.8775897E0,-1.5775118E0,-2.2498982E0,-4.211063E-1,-7.277134E0,5.5257196E0,3.9664373E0,6.7361474E-1,2.3688636E0,-2.8386166E0,8.66217E0,8.7131494E-1,2.9856756E0,-2.7105758E0,3.2995512E0,-3.6578217E0,6.2044826E0,-6.615264E-1,1.0633087E0,-8.016476E0,2.389427E0,-1.3662753E0,2.0379553E0,9.088764E0,1.7113377E0,-4.7556844E0,-1.0338559E0,1.7275425E1,-5.1729317E0,1.8802181E0,6.699066E0,-5.632293E-1,-8.713916E0,-2.0469143E0,-5.877297E0,6.685017E0,-5.056994E0,1.0875514E0,1.3958652E1,-1.4528308E0,7.98965E-1,-1.0005938E0,-3.6504984E0,4.1289873E0,-3.2109914E0,-6.2805276E0,-6.6085064E-1,7.145617E-1,3.0584245E0,-1.6228412E0,-6.344692E-1,2.247314E0,-2.1235235E0,-9.603229E-1,-3.8482258E0,1.5105705E0,6.2591133E0,1.302115E0,-2.8157609E0,8.13236E-1,2.288174E0,3.1161956E-2,8.0838037E-1,4.461519E0,1.8517221E0,-2.4875376E0,2.787385E0,-3.045172E0,-1.9479028E0,-3.8371304E-1,1.4221421E-1,-2.5537932E0,2.2313061E-1,2.67387E0,-9.8990935E-1,-1.9377989E0,1.1563122E0,-1.6175936E0,5.2818832E0,9.426437E-1,1.0736618E0,-1.2195964E0,6.4181006E-1,-4.144002E-1,-7.360045E-1,-6.1489135E-2,-7.8533584E-1,-2.063525E0],"categories":[],"categories_nodes":[],"categories_segments":[],"categories_sizes":[],"default_left":[0,0,0,0,0,0,0,0,0,0,0,0,0,0,0,0,0,0,0,0,0,0,0,0,0,0,0,0,0,0,0,0,0,0,0,0,0,0,0,0,0,0,0,0,0,0,0,0,0,0,0,0,0,0,0,0,0,0,0,0,0,0,0,0,0,0,0,0,0,0,0,0,0,0,0,0,0,0,0,0,0,0,0,0,0,0,0,0,0,0,0,0,0,0,0,0,0],"id":7,"left_children":[1,3,5,7,9,11,13,15,17,19,21,23,25,27,29,-1,-1,31,33,35,37,39,41,43,45,47,49,51,53,-1,-1,55,57,59,61,63,65,67,69,71,73,75,77,79,81,83,85,87,89,91,93,-1,-1,-1,95,-1,-1,-1,-1,-1,-1,-1,-1,-1,-1,-1,-1,-1,-1,-1,-1,-1,-1,-1,-1,-1,-1,-1,-1,-1,-1,-1,-1,-1,-1,-1,-1,-1,-1,-1,-1,-1,-1,-1,-1,-1,-1],"loss_changes":[1.4338044E3,1.4946238E3,5.108877E2,1.298728E3,9.5600214E2,3.4115466E2,8.825491E2,5.9789307E1,9.395403E2,7.9122943E2,1.3213702E3,9.1840045E2,1.3644619E3,1.688512E2,2.0837144E2,0E0,0E0,8.954065E2,3.395963E2,1.2705754E3,6.3782635E2,6.758751E2,7.9493713E2,7.8491956E2,6.229818E2,1.8015629E3,4.093435E2,6.716008E2,4.471826E1,0E0,0E0,5.784293E2,3.598097E2,2.8121704E2,7.483655E1,6.371988E2,2.807605E2,5.2364734E2,9.077824E2,7.781051E2,1.4567135E3,6.116575E2,6.232901E2,1.21201385E2,2.3162604E2,1.5611719E2,4.151923E2,5.364968E2,2.2487366E2,4.588615E2,7.7392E2,0E0,0E0,0E0,1.9222229E1,0E0,0E0,0E0,0E0,0E0,0E0,0E0,0E0,0E0,0E0,0E0,0E0,0E0,0E0,0E0,0E0,0E0,0E0,0E0,0E0,0E0,0E0,0E0,0E0,0E0,0E0,0E0,0E0,0E0,0E0,0E0,0E0,0E0,0E0,0E0,0E0,0E0,0E0,0E0,0E0,0E0,0E0],"parents":[2147483647,0,0,1,1,2,2,3,3,4,4,5,5,6,6,7,7,8,8,9,9,10,10,11,11,12,12,13,13,14,14,17,17,18,18,19,19,20,20,21,21,22,22,23,23,24,24,25,25,26,26,27,27,28,28,31,31,32,32,33,33,34,34,35,35,36,36,37,37,38,38,39,39,40,40,41,41,42,42,43,43,44,44,45,45,46,46,47,47,48,48,49,49,50,50,54,54],"right_children":[2,4,6,8,10,12,14,16,18,20,22,24,26,28,30,-1,-1,32,34,36,38,40,42,44,46,48,50,52,54,-1,-1,56,58,60,62,64,66,68,70,72,74,76,78,80,82,84,86,88,90,92,94,-1,-1,-1,96,-1,-1,-1,-1,-1,-1,-1,-1,-1,-1,-1,-1,-1,-1,-1,-1,-1,-1,-1,-1,-1,-1,-1,-1,-1,-1,-1,-1,-1,-1,-1,-1,-1,-1,-1,-1,-1,-1,-1,-1,-1,-1],"split_conditions":[1.25295E1,1.2E0,1.4003029E1,1.6156497E2,1.9875873E2,1.3831582E1,2.2556587E1,5E-1,3.1283713E2,2.7000003E0,6.297428E0,6.297428E0,1.4175331E1,1.7695822E2,1.5683776E1,3.9664373E0,6.7361474E-1,9E-1,1E-1,2.1999998E0,5.983477E0,7.2999997E0,6.9153743E0,5.3517847E0,6.7E0,1E-1,1.6392E1,1.43565855E1,1.875237E2,2.389427E0,-1.3662753E0,1.8540826E2,3.0088098E2,6.508667E0,5.992001E0,6.297428E0,1.0081582E1,6.9999995E0,7.208994E0,6.825334E0,6.567E0,-3.4758338E-1,2.1842812E2,4.5536795E0,1.7108514E2,2E-1,1.49E1,2.54419E2,1.5999999E0,1.7000003E0,1.9556581E1,-3.6504984E0,4.1289873E0,-3.2109914E0,1.3589916E1,-6.6085064E-1,7.145617E-1,3.0584245E0,-1.6228412E0,-6.344692E-1,2.247314E0,-2.1235235E0,-9.603229E-1,-3.8482258E0,1.5105705E0,6.2591133E0,1.302115E0,-2.8157609E0,8.13236E-1,2.288174E0,3.1161956E-2,8.0838037E-1,4.461519E0,1.8517221E0,-2.4875376E0,2.787385E0,-3.045172E0,-1.9479028E0,-3.8371304E-1,1.4221421E-1,-2.5537932E0,2.2313061E-1,2.67387E0,-9.8990935E-1,-1.9377989E0,1.1563122E0,-1.6175936E0,5.2818832E0,9.426437E-1,1.0736618E0,-1.2195964E0,6.4181006E-1,-4.144002E-1,-7.360045E-1,-6.1489135E-2,-7.8533584E-1,-2.063525E0],"split_indices":[0,1,2,3,3,0,0,1,3,1,2,2,0,3,2,0,0,1,1,1,2,1,2,2,1,1,0,0,3,0,0,3,3,0,0,2,0,1,2,0,0,0,3,2,3,1,1,3,1,1,0,0,0,0,0,0,0,0,0,0,0,0,0,0,0,0,0,0,0,0,0,0,0,0,0,0,0,0,0,0,0,0,0,0,0,0,0,0,0,0,0,0,0,0,0,0,0],"split_type":[0,0,0,0,0,0,0,0,0,0,0,0,0,0,0,0,0,0,0,0,0,0,0,0,0,0,0,0,0,0,0,0,0,0,0,0,0,0,0,0,0,0,0,0,0,0,0,0,0,0,0,0,0,0,0,0,0,0,0,0,0,0,0,0,0,0,0,0,0,0,0,0,0,0,0,0,0,0,0,0,0,0,0,0,0,0,0,0,0,0,0,0,0,0,0,0,0],"sum_hessian":[1.826E3,8.27E2,9.99E2,4.58E2,3.69E2,9.68E2,3.1E1,1.1E1,4.47E2,1.16E2,2.53E2,1.15E2,8.53E2,2.5E1,6E0,1E1,1E0,4.1E2,3.7E1,1.4E1,1.02E2,5E1,2.03E2,2.3E1,9.2E1,2.9E1,8.24E2,2E0,2.3E1,5E0,1E0,3.92E2,1.8E1,1.1E1,2.6E1,7E0,7E0,1.4E1,8.8E1,2.4E1,2.6E1,1.9E1,1.84E2,6E0,1.7E1,7.1E1,2.1E1,1.4E1,1.5E1,1.55E2,6.69E2,1E0,1E0,7E0,1.6E1,2.9E1,3.63E2,1.7E1,1E0,7E0,4E0,9E0,1.7E1,2E0,5E0,5E0,2E0,9E0,5E0,2E1,6.8E1,1.7E1,7E0,1.4E1,1.2E1,1E0,1.8E1,2.6E1,1.58E2,2E0,4E0,5E0,1.2E1,3.3E1,3.8E1,1.5E1,6E0,1E1,4E0,5E0,1E1,9.6E1,5.9E1,2.36E2,4.33E2,3E0,1.3E1],"tree_param":{"num_deleted":"0","num_feature":"4","num_nodes":"97","size_leaf_vector":"1"}},{"base_weights":[2.9966986E-2,1.1925328E0,-3.9937752E-1,2.765631E0,-2.3985539E-2,6.155011E-1,-8.4671944E-1,3.948252E0,5.054282E-1,-4.726835E0,2.8009212E-1,1.1479994E1,3.977612E-1,-3.9874022E0,-7.226762E-1,8.203349E0,2.623789E0,-9.405765E0,2.174931E0,2.35621E0,-5.8283215E0,9.791344E-1,-1.6995213E0,6.903945E0,-4.2528532E-2,-1.4619077E0,1.2818608E0,-5.9664893E0,1.2842146E1,-2.4374923E-1,-1.5711967E0,3.713752E-1,4.9504833E0,-2.8684206E0,3.1790478E0,1.9276055E0,-1.3637718E1,5.3630576E0,-7.1097916E-1,-3.7813398E-1,1.4384285E0,-7.213683E0,2.1176853E0,2.88837E-1,5.661603E0,-8.435265E0,-1.0414904E0,-7.340228E0,4.3722405E0,1.8911035E-1,-2.637488E0,3.0964632E0,-7.380207E-1,-8.116596E0,-1.1238681E0,-4.5582935E-1,5.4407454E0,-8.389539E-1,2.0051796E0,-2.4664226E0,1.1228262E0,-4.6570506E0,1.8064772E0,1.4516877E0,-4.0137726E-1,-2.5772624E0,-5.339566E0,3.9748096E0,7.532485E-1,-3.3820288E0,4.275631E-1,-2.664342E0,-1.1364381E0,2.4478016E0,-1.494843E0,2.7750668E-1,-1.6585999E0,-1.6980913E0,3.1137087E0,-1.605259E-1,-3.6754744E0,2.5507063E-1,-7.3347545E-1,2.2015573E-1,-3.082862E0,9.321398E-1,-7.0384383E-1,1.2965119E0,-9.5653236E-1,2.182573E0,-7.30551E-2,-5.461716E-1,1.490289E0,1.1435046E0,-2.6598353E0,3.3282511E0,-1.5215019E0,1.2101998E-1,-4.4216973E-1,1.2963902E0,-6.728363E-1,-1.8833783E0,-4.473028E-1,1.1586515E-1,1.3861319E0],"categories":[],"categories_nodes":[],"categories_segments":[],"categories_sizes":[],"default_left":[0,0,0,0,0,0,0,0,0,0,0,0,0,0,0,0,0,0,0,0,0,0,0,0,0,0,0,0,0,0,0,0,0,0,0,0,0,0,0,0,0,0,0,0,0,0,0,0,0,0,0,0,0,0,0,0,0,0,0,0,0,0,0,0,0,0,0,0,0,0,0,0,0,0,0,0,0,0,0,0,0,0,0,0,0,0,0,0,0,0,0,0,0,0,0,0,0,0,0,0,0,0,0,0,0],"id":8,"left_children":[1,3,5,7,9,11,13,15,17,19,21,23,25,27,29,31,33,35,37,39,41,43,45,-1,47,49,51,53,55,57,59,61,-1,-1,63,-1,65,67,69,-1,-1,71,73,75,77,79,81,83,-1,85,87,89,91,93,95,-1,-1,97,99,101,103,-1,-1,-1,-1,-1,-1,-1,-1,-1,-1,-1,-1,-1,-1,-1,-1,-1,-1,-1,-1,-1,-1,-1,-1,-1,-1,-1,-1,-1,-1,-1,-1,-1,-1,-1,-1,-1,-1,-1,-1,-1,-1,-1,-1],"loss_changes":[9.1240735E2,9.435217E2,6.066082E2,5.726918E2,4.003027E2,9.6297784E2,3.5825946E2,7.731123E2,1.2614642E3,1.4636469E2,3.6561224E2,1.0641069E3,6.6281537E2,1.2423727E3,3.6251373E2,2.1386E3,7.67883E2,8.245892E2,6.018551E2,3.250175E1,1.8039777E2,6.2866235E2,2.9704535E2,0E0,6.4031757E2,2.5281631E2,1.00290717E3,3.240669E2,3.316579E2,7.67346E2,7.793558E2,1.7100466E3,0E0,0E0,7.9374E2,0E0,3.608667E1,6.640334E2,8.0578577E2,0E0,0E0,4.061261E1,1.6935263E2,6.3798676E2,1.3940046E3,1.7434186E2,1.7199239E2,1.023625E2,0E0,4.141762E2,3.0517798E2,2.0115857E3,8.120097E2,2.3048596E2,5.868447E2,0E0,0E0,3.57933E2,1.1903484E3,8.903452E2,2.0690175E2,0E0,0E0,0E0,0E0,0E0,0E0,0E0,0E0,0E0,0E0,0E0,0E0,0E0,0E0,0E0,0E0,0E0,0E0,0E0,0E0,0E0,0E0,0E0,0E0,0E0,0E0,0E0,0E0,0E0,0E0,0E0,0E0,0E0,0E0,0E0,0E0,0E0,0E0,0E0,0E0,0E0,0E0,0E0,0E0],"parents":[2147483647,0,0,1,1,2,2,3,3,4,4,5,5,6,6,7,7,8,8,9,9,10,10,11,11,12,12,13,13,14,14,15,15,16,16,17,17,18,18,19,19,20,20,21,21,22,22,24,24,25,25,26,26,27,27,28,28,29,29,30,30,31,31,34,34,36,36,37,37,38,38,41,41,42,42,43,43,44,44,45,45,46,46,47,47,49,49,50,50,51,51,52,52,53,53,54,54,57,57,58,58,59,59,60,60],"right_children":[2,4,6,8,10,12,14,16,18,20,22,24,26,28,30,32,34,36,38,40,42,44,46,-1,48,50,52,54,56,58,60,62,-1,-1,64,-1,66,68,70,-1,-1,72,74,76,78,80,82,84,-1,86,88,90,92,94,96,-1,-1,98,100,102,104,-1,-1,-1,-1,-1,-1,-1,-1,-1,-1,-1,-1,-1,-1,-1,-1,-1,-1,-1,-1,-1,-1,-1,-1,-1,-1,-1,-1,-1,-1,-1,-1,-1,-1,-1,-1,-1,-1,-1,-1,-1,-1,-1,-1],"split_conditions":[8.333667E0,1E-1,1.9575865E2,2.7098773E2,4E-1,8.702416E0,8.77325E0,2.51075E0,2.7697333E2,1.21166624E-1,1.0365251E1,6.519877E0,1.7108514E2,1.1384198E1,9.220499E0,2.5209056E2,2.69825E0,-3.4758338E-1,9E0,-3.4758338E-1,6.1190834E0,9.339208E0,1.0495713E1,6.903945E0,1.8465749E2,1E-1,8.311245E0,2.8621344E2,8.417E0,8.311245E0,2.1446169E1,1.21166624E-1,4.9504833E0,-2.8684206E0,2.4826106E2,1.9276055E0,6.87779E0,2.792382E2,2.8334872E2,-3.7813398E-1,1.4384285E0,3E-1,7.4065833E0,8.854829E0,3.089917E0,4.339917E0,1.1681987E1,8.417E0,4.3722405E0,1.986075E1,4.452954E0,1.5408666E1,2.4644087E1,1.9875873E2,3.0355286E2,-4.5582935E-1,5.4407454E0,2.3701141E2,1.8737833E1,2.4963435E2,2.6242004E1,-4.6570506E0,1.8064772E0,1.4516877E0,-4.0137726E-1,-2.5772624E0,-5.339566E0,3.9748096E0,7.532485E-1,-3.3820288E0,4.275631E-1,-2.664342E0,-1.1364381E0,2.4478016E0,-1.494843E0,2.7750668E-1,-1.6585999E0,-1.6980913E0,3.1137087E0,-1.605259E-1,-3.6754744E0,2.5507063E-1,-7.3347545E-1,2.2015573E-1,-3.082862E0,9.321398E-1,-7.0384383E-1,1.2965119E0,-9.5653236E-1,2.182573E0,-7.30551E-2,-5.461716E-1,1.490289E0,1.1435046E0,-2.6598353E0,3.3282511E0,-1.5215019E0,1.2101998E-1,-4.4216973E-1,1.2963902E0,-6.728363E-1,-1.8833783E0,-4.473028E-1,1.1586515E-1,1.3861319E0],"split_indices":[0,1,3,3,1,0,0,0,3,0,2,2,3,2,2,3,0,0,2,0,0,2,2,0,3,1,2,3,0,2,0,0,0,0,3,0,2,3,3,0,0,1,0,2,0,0,2,0,0,0,2,0,0,3,3,0,0,3,0,3,0,0,0,0,0,0,0,0,0,0,0,0,0,0,0,0,0,0,0,0,0,0,0,0,0,0,0,0,0,0,0,0,0,0,0,0,0,0,0,0,0,0,0,0,0],"split_type":[0,0,0,0,0,0,0,0,0,0,0,0,0,0,0,0,0,0,0,0,0,0,0,0,0,0,0,0,0,0,0,0,0,0,0,0,0,0,0,0,0,0,0,0,0,0,0,0,0,0,0,0,0,0,0,0,0,0,0,0,0,0,0,0,0,0,0,0,0,0,0,0,0,0,0,0,0,0,0,0,0,0,0,0,0,0,0,0,0,0,0,0,0,0,0,0,0,0,0,0,0,0,0,0,0],"sum_hessian":[1.826E3,4.92E2,1.334E3,2.14E2,2.78E2,4.08E2,9.26E2,1.4E2,7.4E1,1.6E1,2.62E2,7E0,4.01E2,3.4E1,8.92E2,3.2E1,1.08E2,1E1,6.4E1,2E0,1.4E1,1.94E2,6.8E1,3E0,4E0,1.29E2,2.72E2,3.1E1,3E0,5.71E2,3.21E2,1.7E1,1.5E1,4E0,1.04E2,2E0,8E0,3E1,3.4E1,1E0,1E0,1.2E1,2E0,1.7E2,2.4E1,5E0,6.3E1,3E0,1E0,5.4E1,7.5E1,1.43E2,1.29E2,2.1E1,1E1,1E0,2E0,4.52E2,1.19E2,2.41E2,8E1,4E0,1.3E1,7.6E1,2.8E1,5E0,3E0,7E0,2.3E1,5E0,2.9E1,7E0,5E0,1E0,1E0,1.54E2,1.6E1,7E0,1.7E1,2E0,3E0,2.7E1,3.6E1,1E0,2E0,2.5E1,2.9E1,5E0,7E1,6.3E1,8E1,1.09E2,2E1,1E0,2E1,2E0,8E0,1.53E2,2.99E2,7.7E1,4.2E1,4.8E1,1.93E2,6.7E1,1.3E1],"tree_param":{"num_deleted":"0","num_feature":"4","num_nodes":"105","size_leaf_vector":"1"}},{"base_weights":[2.4689244E-2,1.546183E0,-1.6329166E-1,2.1064339E0,-2.4822407E0,4.316811E-1,-7.624649E-1,2.5041249E0,-5.595369E0,-4.454331E0,2.265243E0,2.5926514E0,8.1138074E-2,-9.145956E0,-6.9911075E-1,-1.9569752E-1,3.3985207E0,-8.695912E0,-1.3757515E0,-6.87947E0,-5.6297374E-1,-1.2280395E0,3.7584107E0,1.4418514E0,7.339549E0,5.361442E-1,-1.1796871E0,-3.942942E0,-7.6772624E-1,-3.4816802E0,-5.183126E-1,1.1493252E1,-1.3597E0,2.5860763E0,1.3763227E1,-6.6259235E-1,-2.929671E0,-9.188502E-1,2.3097439E-1,-8.882038E0,-1.1544657E0,2.8232677E0,-1.3965096E0,1.5574076E0,1.17360435E-1,2.6729555E0,-1.685465E1,2.2066026E0,1.4508627E1,-3.9284415E0,7.3269296E-1,-5.1803594E0,-1.583189E-1,2.6486492E-1,-6.103418E-1,-4.2045884E0,2.7013319E0,5.9505424E0,-6.747513E-1,-6.7552185E-1,5.0476484E0,-1.3150213E0,8.967125E-1,9.758103E-1,-9.2990583E-1,4.937821E0,8.6532366E-1,1.3751279E-1,-3.0845597E0,-4.346485E-1,-4.0706635E-2,-2.5181887E-1,1.6634527E0,2.0733406E-1,-1.5452185E-1,-8.844869E-1,1.2181238E0,-8.28402E-1,-6.963291E0,3.0468903E0,-1.0015123E0,6.4153957E0,1.7022943E-1,-2.4268012E0,-2.9189306E-1,-3.0963606E-1,3.8730386E-1,-7.174573E-1,-3.5424812E0,2.1690636E0,-2.2131465E-1,1.8975679E0,-1.4439422E0,3.517875E0,4.7205392E-2,-1.6483699E-1,-1.4833213E0],"categories":[],"categories_nodes":[],"categories_segments":[],"categories_sizes":[],"default_left":[0,0,0,0,0,0,0,0,0,0,0,0,0,0,0,0,0,0,0,0,0,0,0,0,0,0,0,0,0,0,0,0,0,0,0,0,0,0,0,0,0,0,0,0,0,0,0,0,0,0,0,0,0,0,0,0,0,0,0,0,0,0,0,0,0,0,0,0,0,0,0,0,0,0,0,0,0,0,0,0,0,0,0,0,0,0,0,0,0,0,0,0,0,0,0,0,0],"id":9,"left_children":[1,3,5,7,9,11,13,15,17,19,21,23,25,27,29,31,33,35,37,39,41,-1,43,45,47,49,51,-1,53,55,57,59,61,63,65,-1,-1,-1,-1,67,69,71,-1,-1,73,75,77,79,81,83,85,87,89,-1,-1,91,-1,93,95,-1,-1,-1,-1,-1,-1,-1,-1,-1,-1,-1,-1,-1,-1,-1,-1,-1,-1,-1,-1,-1,-1,-1,-1,-1,-1,-1,-1,-1,-1,-1,-1,-1,-1,-1,-1,-1,-1],"loss_changes":[5.227961E2,4.5887122E2,5.803411E2,5.561515E2,2.4415182E2,6.186778E2,4.2435126E2,4.0875098E2,1.05784546E2,1.6599454E2,9.134184E1,6.1216864E2,4.0450543E2,1.9084555E2,4.0368066E2,6.006839E2,1.0338422E3,1.3127167E1,2.0457697E1,1.1585779E2,1.23995995E2,0E0,3.5912773E1,2.139867E3,7.77552E2,4.5742798E2,7.632916E2,0E0,8.068911E0,4.8014948E2,7.7109546E2,3.3105328E2,5.390745E2,4.611244E2,2.1650488E2,0E0,0E0,0E0,0E0,1.0931268E2,1.0029702E0,5.449538E1,0E0,0E0,1.4445552E0,6.9830396E2,4.7339636E2,6.5103796E2,8.506057E2,2.626717E2,4.9104153E2,6.741579E2,6.474672E2,0E0,0E0,3.316175E2,0E0,6.004308E2,3.9369214E2,0E0,0E0,0E0,0E0,0E0,0E0,0E0,0E0,0E0,0E0,0E0,0E0,0E0,0E0,0E0,0E0,0E0,0E0,0E0,0E0,0E0,0E0,0E0,0E0,0E0,0E0,0E0,0E0,0E0,0E0,0E0,0E0,0E0,0E0,0E0,0E0,0E0,0E0],"parents":[2147483647,0,0,1,1,2,2,3,3,4,4,5,5,6,6,7,7,8,8,9,9,10,10,11,11,12,12,13,13,14,14,15,15,16,16,17,17,18,18,19,19,20,20,22,22,23,23,24,24,25,25,26,26,28,28,29,29,30,30,31,31,32,32,33,33,34,34,39,39,40,40,41,41,44,44,45,45,46,46,47,47,48,48,49,49,50,50,51,51,52,52,55,55,57,57,58,58],"right_children":[2,4,6,8,10,12,14,16,18,20,22,24,26,28,30,32,34,36,38,40,42,-1,44,46,48,50,52,-1,54,56,58,60,62,64,66,-1,-1,-1,-1,68,70,72,-1,-1,74,76,78,80,82,84,86,88,90,-1,-1,92,-1,94,96,-1,-1,-1,-1,-1,-1,-1,-1,-1,-1,-1,-1,-1,-1,-1,-1,-1,-1,-1,-1,-1,-1,-1,-1,-1,-1,-1,-1,-1,-1,-1,-1,-1,-1,-1,-1,-1,-1],"split_conditions":[4.6024165E0,1.0739832E1,2.408432E2,1.6600002E1,3.231761E2,8.054501E0,4.7315836E0,2.3298E2,2.984211E2,2.8274167E0,1.0805998E1,2.1842812E2,9.220499E0,1.1246759E1,2.5078717E2,8.836667E-1,4.339917E0,1.77325E0,1.78E1,1.255879E1,1.255879E1,-1.2280395E0,2.8274167E0,2.1499208E2,7.4065833E0,4.913044E0,1.1900333E1,-3.942942E0,1E-1,1.0199999E1,2.54419E2,-8.7674993E-1,7.0015144E0,3.9045E0,3.6000001E0,-6.6259235E-1,-2.929671E0,-9.188502E-1,2.3097439E-1,1.8540826E2,1.7000003E0,3.089917E0,-1.3965096E0,1.5574076E0,3.089917E0,5.2545E0,5.7399173E0,6.1437774E0,2.293988E2,9.625333E0,1.7108514E2,2.0013644E2,1.7514699E2,2.6486492E-1,-6.103418E-1,4.86E0,2.7013319E0,1.7067E1,3.4046326E2,-6.7552185E-1,5.0476484E0,-1.3150213E0,8.967125E-1,9.758103E-1,-9.2990583E-1,4.937821E0,8.6532366E-1,1.3751279E-1,-3.0845597E0,-4.346485E-1,-4.0706635E-2,-2.5181887E-1,1.6634527E0,2.0733406E-1,-1.5452185E-1,-8.844869E-1,1.2181238E0,-8.28402E-1,-6.963291E0,3.0468903E0,-1.0015123E0,6.4153957E0,1.7022943E-1,-2.4268012E0,-2.9189306E-1,-3.0963606E-1,3.8730386E-1,-7.174573E-1,-3.5424812E0,2.1690636E0,-2.2131465E-1,1.8975679E0,-1.4439422E0,3.517875E0,4.7205392E-2,-1.6483699E-1,-1.4833213E0],"split_indices":[0,2,3,1,3,0,0,3,3,0,2,3,2,2,3,0,0,0,1,2,2,0,0,3,0,2,0,0,1,1,3,0,2,0,1,0,0,0,0,3,1,0,0,0,0,0,0,2,3,0,3,3,3,0,0,2,0,0,3,0,0,0,0,0,0,0,0,0,0,0,0,0,0,0,0,0,0,0,0,0,0,0,0,0,0,0,0,0,0,0,0,0,0,0,0,0,0],"split_type":[0,0,0,0,0,0,0,0,0,0,0,0,0,0,0,0,0,0,0,0,0,0,0,0,0,0,0,0,0,0,0,0,0,0,0,0,0,0,0,0,0,0,0,0,0,0,0,0,0,0,0,0,0,0,0,0,0,0,0,0,0,0,0,0,0,0,0,0,0,0,0,0,0,0,0,0,0,0,0,0,0,0,0,0,0,0,0,0,0,0,0,0,0,0,0,0,0],"sum_hessian":[1.826E3,2E2,1.626E3,1.76E2,2.4E1,8.16E2,8.1E2,1.68E2,8E0,1.7E1,7E0,1.13E2,7.03E2,5E0,8.05E2,4.2E1,1.26E2,4E0,4E0,1E1,7E0,1E0,6E0,9.2E1,2.1E1,5.17E2,1.86E2,3E0,2E0,4.8E1,7.57E2,3E0,3.9E1,1.18E2,8E0,1E0,3E0,2E0,2E0,7E0,3E0,4E0,3E0,4E0,2E0,8.7E1,5E0,1.3E1,8E0,2.1E1,4.96E2,3.7E1,1.49E2,1E0,1E0,4.6E1,2E0,1.7E1,7.4E2,1E0,2E0,2.3E1,1.6E1,1.06E2,1.2E1,6E0,2E0,1E0,6E0,2E0,1E0,2E0,2E0,1E0,1E0,1.7E1,7E1,2E0,3E0,5E0,8E0,5E0,3E0,8E0,1.3E1,1.19E2,3.77E2,2.7E1,1E1,1E1,1.39E2,2E0,4.4E1,8E0,9E0,7.2E2,2E1],"tree_param":{"num_deleted":"0","num_feature":"4","num_nodes":"97","size_leaf_vector":"1"}},{"base_weights":[1.7009363E-2,8.013883E-2,-4.3590026E0,2.3543797E-1,-1.2703927E0,-5.669736E0,8.664131E-3,8.1214774E-1,-2.2032109E-1,2.3049092E0,-2.0282795E0,-6.1307807E0,4.6351779E-1,-2.9742491E0,2.9894114E0,6.530855E-1,6.298954E0,-5.163306E-1,6.752646E-1,5.302026E0,-1.645099E0,-4.176724E0,-1.2117932E0,-8.017812E-1,-7.079857E0,1.8300392E-2,-1.2018999E0,1.4917455E0,-4.4397128E-1,1.0204911E0,-6.442324E-1,1.3104218E1,-1.8167307E0,-4.1244918E-1,-3.9237947E0,4.716624E0,2.140502E-1,3.1317263E0,4.7499146E0,1.6485586E0,-3.4567838E0,1.4209719E0,-4.643751E0,4.8296115E-1,-2.5168858E0,7.1229935E-2,-5.131222E-1,-3.2247972E0,-4.960924E0,2.2927363E0,2.4913034E-1,-2.7640738E0,3.750435E-1,1.1941756E0,4.808402E0,-2.8017633E0,1.4264373E0,-1.6604447E-1,1.1736115E0,-1.8114134E0,-2.0064539E-1,2.0821702E0,4.9786285E-1,-2.1504934E0,1.4258431E-1,5.9116278E-2,2.1887894E0,-7.481678E-1,1.9866923E0,-1.2662671E0,-8.007164E-2,1.6426108E0,-1.611333E0,-2.6940456E-1,-1.6744275E0,1.8691605E0,-2.7919972E-1,-1.4999635E0,-2.3910654E-1,-2.8549004E-2,6.0602475E-2,-1.1276179E-1,-1.9342535E0],"categories":[],"categories_nodes":[],"categories_segments":[],"categories_sizes":[],"default_left":[0,0,0,0,0,0,0,0,0,0,0,0,0,0,0,0,0,0,0,0,0,0,0,0,0,0,0,0,0,0,0,0,0,0,0,0,0,0,0,0,0,0,0,0,0,0,0,0,0,0,0,0,0,0,0,0,0,0,0,0,0,0,0,0,0,0,0,0,0,0,0,0,0,0,0,0,0,0,0,0,0,0,0],"id":10,"left_children":[1,3,5,7,9,11,13,15,17,19,21,23,-1,25,27,29,31,33,35,37,39,41,43,45,47,-1,-1,-1,-1,49,51,53,55,57,59,61,63,65,-1,67,69,71,73,75,77,79,-1,-1,81,-1,-1,-1,-1,-1,-1,-1,-1,-1,-1,-1,-1,-1,-1,-1,-1,-1,-1,-1,-1,-1,-1,-1,-1,-1,-1,-1,-1,-1,-1,-1,-1,-1,-1],"loss_changes":[5.0506778E2,3.7824408E2,1.4889514E2,4.2519235E2,5.086744E2,7.599933E1,7.1130424E1,6.190253E2,2.4000076E2,3.993973E2,2.6508167E2,9.0418396E1,0E0,1.2774925E1,4.2810722E1,3.3192365E2,1.1283943E3,2.3908269E2,4.183753E2,3.8466925E2,9.520474E1,1.16398315E2,2.5115024E2,3.2947948E0,7.10791E1,0E0,0E0,0E0,0E0,6.7578656E2,2.5114893E3,2.2963025E2,5.387473E2,4.0530444E2,1.3359833E2,1.4485367E2,3.948925E2,2.063137E2,0E0,1.401364E2,2.3247482E1,1.3956E2,1.3196655E2,4.1204477E2,2.6932123E2,8.450568E-2,0E0,0E0,7.936948E1,0E0,0E0,0E0,0E0,0E0,0E0,0E0,0E0,0E0,0E0,0E0,0E0,0E0,0E0,0E0,0E0,0E0,0E0,0E0,0E0,0E0,0E0,0E0,0E0,0E0,0E0,0E0,0E0,0E0,0E0,0E0,0E0,0E0,0E0],"parents":[2147483647,0,0,1,1,2,2,3,3,4,4,5,5,6,6,7,7,8,8,9,9,10,10,11,11,13,13,14,14,15,15,16,16,17,17,18,18,19,19,20,20,21,21,22,22,23,23,24,24,29,29,30,30,31,31,32,32,33,33,34,34,35,35,36,36,37,37,39,39,40,40,41,41,42,42,43,43,44,44,45,45,48,48],"right_children":[2,4,6,8,10,12,14,16,18,20,22,24,-1,26,28,30,32,34,36,38,40,42,44,46,48,-1,-1,-1,-1,50,52,54,56,58,60,62,64,66,-1,68,70,72,74,76,78,80,-1,-1,82,-1,-1,-1,-1,-1,-1,-1,-1,-1,-1,-1,-1,-1,-1,-1,-1,-1,-1,-1,-1,-1,-1,-1,-1,-1,-1,-1,-1,-1,-1,-1,-1,-1,-1],"split_conditions":[3.2799995E1,3.1864603E2,9.746631E0,1.2241998E1,7.2E0,8.049999E1,1.43565855E1,1.1900333E1,2.2867002E1,7.2999997E0,9.726664E0,1.5985365E2,4.6351779E-1,3.73E1,1.2906138E1,5.8E0,1.5E0,1.4345898E1,5.8603754E0,6.1E0,3.26358E2,1E-1,1.1988594E1,6.2145634E0,1.7695822E2,1.8300392E-2,-1.2018999E0,1.4917455E0,-4.4397128E-1,1.6156497E2,7.7999997E0,1.8698553E2,2.9999998E0,1.3004921E1,1.613575E1,2.2624533E2,1.5985365E2,6.830519E0,4.7499146E0,1.5183667E1,2.23E1,8.4963045E0,6.6545005E0,3E-1,1.3339445E1,8.77325E0,-5.131222E-1,-3.2247972E0,9.292001E0,2.2927363E0,2.4913034E-1,-2.7640738E0,3.750435E-1,1.1941756E0,4.808402E0,-2.8017633E0,1.4264373E0,-1.6604447E-1,1.1736115E0,-1.8114134E0,-2.0064539E-1,2.0821702E0,4.9786285E-1,-2.1504934E0,1.4258431E-1,5.9116278E-2,2.1887894E0,-7.481678E-1,1.9866923E0,-1.2662671E0,-8.007164E-2,1.6426108E0,-1.611333E0,-2.6940456E-1,-1.6744275E0,1.8691605E0,-2.7919972E-1,-1.4999635E0,-2.3910654E-1,-2.8549004E-2,6.0602475E-2,-1.1276179E-1,-1.9342535E0],"split_indices":[1,3,2,0,2,1,0,0,0,1,2,3,0,1,2,1,1,2,2,1,3,1,2,2,3,0,0,0,0,3,1,3,1,2,0,3,3,2,0,0,1,2,0,1,2,0,0,0,0,0,0,0,0,0,0,0,0,0,0,0,0,0,0,0,0,0,0,0,0,0,0,0,0,0,0,0,0,0,0,0,0,0,0],"split_type":[0,0,0,0,0,0,0,0,0,0,0,0,0,0,0,0,0,0,0,0,0,0,0,0,0,0,0,0,0,0,0,0,0,0,0,0,0,0,0,0,0,0,0,0,0,0,0,0,0,0,0,0,0,0,0,0,0,0,0,0,0,0,0,0,0,0,0,0,0,0,0,0,0,0,0,0,0,0,0,0,0,0,0],"sum_hessian":[1.826E3,1.801E3,2.5E1,1.616E3,1.85E2,1.9E1,6E0,7.13E2,9.03E2,3.2E1,1.53E2,1.8E1,1E0,3E0,3E0,6.94E2,1.9E1,6.79E2,2.24E2,1.8E1,1.4E1,4.1E1,1.12E2,3E0,1.5E1,1E0,2E0,2E0,1E0,5.41E2,1.53E2,1E1,9E0,6.6E2,1.9E1,2.2E1,2.02E2,1.6E1,2E0,5E0,9E0,3E0,3.8E1,4.9E1,6.3E1,2E0,1E0,4E0,1.1E1,1.4E1,5.27E2,2.7E1,1.26E2,3E0,7E0,4E0,5E0,6.4E2,2E1,1.1E1,8E0,1.2E1,1E1,6E0,1.96E2,1E1,6E0,3E0,2E0,7E0,2E0,2E0,1E0,8E0,3E1,9E0,4E1,2.5E1,3.8E1,1E0,1E0,3E0,8E0],"tree_param":{"num_deleted":"0","num_feature":"4","num_nodes":"83","size_leaf_vector":"1"}},{"base_weights":[1.3959757E-2,-5.733655E0,4.2389978E-2,-6.784869E0,-1.3696028E0,9.022653E-2,-3.2599628E0,-8.284817E-1,-2.3525562E0,-5.6772995E-1,-4.859133E-2,3.4335896E-2,3.6141026E0,-4.6033955E0,-6.5013045E-1,7.984252E-2,-3.419725E0,7.4243627E0,2.9238486E-1,-5.391978E0,-1.6324031E0,1.312191E0,-1.6943605E0,1.0832869E0,-6.3371286E-2,-7.8113894E0,1.2569165E0,-2.6893864E0,9.507715E0,-3.1914365E0,3.3566277E0,-1.9291004E0,-6.71669E0,1.5555383E-2,-2.0664296E0,-2.3044086E0,4.7790357E-1,4.9687192E-1,-7.2790176E-1,-1.7198219E0,-1.0127224E-3,-2.6252928E0,-6.2269175E-1,-1.7658718E0,2.1600187E0,3.0602646E-1,-1.5162504E0,3.7003706E0,4.4312468E-1,3.1002274E-1,-1.431586E0,-1.9342995E0,2.123685E0,-2.4266625E-2,-7.112794E-1,-2.2849917E0,-7.1337354E-1,-7.21415E-1,-1.5773535E-1,-9.0265155E-1,3.9399007E-1],"categories":[],"categories_nodes":[],"categories_segments":[],"categories_sizes":[],"default_left":[0,0,0,0,0,0,0,0,0,0,0,0,0,0,0,0,0,0,0,0,0,0,0,0,0,0,0,0,0,0,0,0,0,0,0,0,0,0,0,0,0,0,0,0,0,0,0,0,0,0,0,0,0,0,0,0,0,0,0,0,0],"id":11,"left_children":[1,3,5,7,9,11,13,-1,-1,-1,-1,15,17,19,21,23,25,27,29,31,33,-1,35,37,39,41,43,45,47,49,51,53,55,-1,57,59,-1,-1,-1,-1,-1,-1,-1,-1,-1,-1,-1,-1,-1,-1,-1,-1,-1,-1,-1,-1,-1,-1,-1,-1,-1],"loss_changes":[2.987857E2,3.1995453E1,2.8764734E2,8.111542E0,1.5876403E0,3.5320718E2,8.816669E1,0E0,0E0,0E0,0E0,2.780148E2,3.5221426E2,3.1026947E1,5.987425E1,2.5083752E2,4.8219775E2,2.9948657E2,1.8151688E2,4.6677917E1,3.7622013E0,0E0,2.1720049E1,4.4238385E2,5.197097E2,4.6506958E1,5.51815E2,3.1471987E1,2.3149628E2,5.8350883E1,3.7409528E2,3.891201E0,1.7030426E1,0E0,8.2035637E-1,2.4338882E1,0E0,0E0,0E0,0E0,0E0,0E0,0E0,0E0,0E0,0E0,0E0,0E0,0E0,0E0,0E0,0E0,0E0,0E0,0E0,0E0,0E0,0E0,0E0,0E0,0E0],"parents":[2147483647,0,0,1,1,2,2,3,3,4,4,5,5,6,6,11,11,12,12,13,13,14,14,15,15,16,16,17,17,18,18,19,19,20,20,22,22,23,23,24,24,25,25,26,26,27,27,28,28,29,29,30,30,31,31,32,32,34,34,35,35],"right_children":[2,4,6,8,10,12,14,-1,-1,-1,-1,16,18,20,22,24,26,28,30,32,34,-1,36,38,40,42,44,46,48,50,52,54,56,-1,58,60,-1,-1,-1,-1,-1,-1,-1,-1,-1,-1,-1,-1,-1,-1,-1,-1,-1,-1,-1,-1,-1,-1,-1,-1,-1],"split_conditions":[4.2038956E1,7.9526596E0,3.2799995E1,5.506941E0,6.3232512E0,2.7800003E1,1.48169985E1,-8.284817E-1,-2.3525562E0,-5.6772995E-1,-4.859133E-2,2.35E1,1.9315436E2,2.906033E2,1.4906583E1,4.931583E0,2.5400003E1,1.5122534E2,1.3589916E1,6.9550843E0,3.73E1,1.312191E0,2.2642E1,1.0538843E1,5.2086663E0,1.9060751E1,1.977583E2,1.6446165E1,9.746631E0,2.84E1,1.977583E2,8.77325E0,1.2173248E1,1.5555383E-2,1.0777415E1,8.049999E1,4.7790357E-1,4.9687192E-1,-7.2790176E-1,-1.7198219E0,-1.0127224E-3,-2.6252928E0,-6.2269175E-1,-1.7658718E0,2.1600187E0,3.0602646E-1,-1.5162504E0,3.7003706E0,4.4312468E-1,3.1002274E-1,-1.431586E0,-1.9342995E0,2.123685E0,-2.4266625E-2,-7.112794E-1,-2.2849917E0,-7.1337354E-1,-7.21415E-1,-1.5773535E-1,-9.0265155E-1,3.9399007E-1],"split_indices":[3,2,1,2,0,1,0,0,0,0,0,1,3,3,0,0,1,3,0,2,1,0,0,2,0,0,3,0,2,1,3,0,0,0,0,1,0,0,0,0,0,0,0,0,0,0,0,0,0,0,0,0,0,0,0,0,0,0,0,0,0],"split_type":[0,0,0,0,0,0,0,0,0,0,0,0,0,0,0,0,0,0,0,0,0,0,0,0,0,0,0,0,0,0,0,0,0,0,0,0,0,0,0,0,0,0,0,0,0,0,0,0,0,0,0,0,0,0,0,0,0,0,0,0,0],"sum_hessian":[1.826E3,8E0,1.818E3,6E0,2E0,1.793E3,2.5E1,2E0,4E0,1E0,1E0,1.766E3,2.7E1,1.6E1,9E0,1.744E3,2.2E1,1.2E1,1.5E1,1.2E1,4E0,1E0,8E0,2.17E2,1.527E3,1.1E1,1.1E1,2E0,1E1,7E0,8E0,4E0,8E0,1E0,3E0,7E0,1E0,1.87E2,3E1,1.5E1,1.512E3,9E0,2E0,5E0,6E0,1E0,1E0,7E0,3E0,2E0,5E0,2E0,6E0,1E0,3E0,6E0,2E0,2E0,1E0,6E0,1E0],"tree_param":{"num_deleted":"0","num_feature":"4","num_nodes":"61","size_leaf_vector":"1"}},{"base_weights":[4.342508E-3,5.28623E-2,-2.2813094E0,4.1377068E-1,-2.7687007E-1,-5.043503E0,-8.124699E-1,2.944232E-1,7.0776014E0,-2.6395857E0,-1.4055477E-1,2.0868301E0,-6.529639E0,1.2112374E0,-4.1715255E0,1.5644298E-1,3.2884674E0,-3.0261223E0,9.024155E0,-4.1866107E0,1.7480237E0,-2.6249679E-2,-2.9190514E0,-2.7159371E0,3.6550107E0,-7.1906543E0,-7.110138E-1,2.8593042E0,-2.286769E0,-4.4353614E0,-2.6955056E-1,3.1162527E-1,-8.633615E0,1.3714931E1,1.6090497E0,5.627061E0,4.664609E0,-2.5535839E0,-5.2286835E0,5.319376E0,-2.393452E0,-1.3182949E-1,2.4420512E0,-5.1510143E0,-5.2491915E-1,-6.44216E-1,-2.265792E0,-1.3620069E0,5.1402106E0,1.38197E-1,-8.785156E-1,-3.267114E-1,-1.4152565E0,1.8227719E-1,-2.9409876E-1,1.3756313E0,-3.0009575E0,8.085586E0,1.1003065E0,-2.2873855E-1,2.1419318E0,3.8298348E-1,3.0823355E0,-1.0225734E0,2.310763E0,-1.2819661E0,1.4010779E0,4.4997683E-1,-9.5440835E-2,-2.4963381E0,9.010063E-1,-1.6839949E0,4.0621778E-1,-7.563501E-1,3.972587E-1,2.9614164E-2,-5.255597E-1,2.901371E-1,1.9110157E0],"categories":[],"categories_nodes":[],"categories_segments":[],"categories_sizes":[],"default_left":[0,0,0,0,0,0,0,0,0,0,0,0,0,0,0,0,0,0,0,0,0,0,0,0,0,0,0,0,0,0,0,0,0,0,0,0,0,0,0,0,0,0,0,0,0,0,0,0,0,0,0,0,0,0,0,0,0,0,0,0,0,0,0,0,0,0,0,0,0,0,0,0,0,0,0,0,0,0,0],"id":12,"left_children":[1,3,5,7,9,11,13,15,17,19,21,23,25,27,29,31,33,-1,35,37,39,41,43,-1,-1,45,-1,47,49,51,-1,53,55,57,59,-1,61,63,-1,-1,65,67,69,71,73,-1,-1,75,77,-1,-1,-1,-1,-1,-1,-1,-1,-1,-1,-1,-1,-1,-1,-1,-1,-1,-1,-1,-1,-1,-1,-1,-1,-1,-1,-1,-1,-1,-1],"loss_changes":[2.0273372E2,2.1313025E2,1.5007658E2,6.779075E2,3.0109058E2,1.5138263E2,1.8179408E2,3.4691846E2,5.922067E2,3.5349307E2,2.813137E2,4.4772247E2,1.3202942E1,1.0454269E2,4.650223E0,1.1007598E3,6.258163E2,0E0,5.0652954E2,7.772469E2,9.6915704E2,2.2235545E2,1.8432263E2,0E0,0E0,2.1182251E-1,0E0,1.22541985E2,1.1925741E1,3.3602448E0,0E0,3.034356E2,2.9933203E2,5.6612634E2,4.382774E2,0E0,1.9595096E2,3.331671E2,0E0,0E0,1.7929474E2,2.4915427E2,2.3644044E2,6.173227E1,6.9781746E1,0E0,0E0,3.0203075E0,3.4897263E1,0E0,0E0,0E0,0E0,0E0,0E0,0E0,0E0,0E0,0E0,0E0,0E0,0E0,0E0,0E0,0E0,0E0,0E0,0E0,0E0,0E0,0E0,0E0,0E0,0E0,0E0,0E0,0E0,0E0,0E0],"parents":[2147483647,0,0,1,1,2,2,3,3,4,4,5,5,6,6,7,7,8,8,9,9,10,10,11,11,12,12,13,13,14,14,15,15,16,16,18,18,19,19,20,20,21,21,22,22,25,25,27,27,28,28,29,29,31,31,32,32,33,33,34,34,36,36,37,37,40,40,41,41,42,42,43,43,44,44,47,47,48,48],"right_children":[2,4,6,8,10,12,14,16,18,20,22,24,26,28,30,32,34,-1,36,38,40,42,44,-1,-1,46,-1,48,50,52,-1,54,56,58,60,-1,62,64,-1,-1,66,68,70,72,74,-1,-1,76,78,-1,-1,-1,-1,-1,-1,-1,-1,-1,-1,-1,-1,-1,-1,-1,-1,-1,-1,-1,-1,-1,-1,-1,-1,-1,-1,-1,-1,-1,-1],"split_conditions":[1.5188415E1,2.408432E2,1.9285413E2,2.3899377E2,2.4963435E2,1.7695822E2,3.231761E2,1.2819235E1,-3.4758338E-1,8.4042845E0,2.1900002E1,1.43565855E1,9.400001E0,1.4100001E1,3.3637057E2,1.2475961E1,1.8042049E2,-3.0261223E0,4.339917E0,7.928177E0,8.4963045E0,2.5227419E1,3.0413345E2,-2.7159371E0,3.6550107E0,1.7752843E2,-7.110138E-1,6E-1,1.9366231E2,3.277712E2,-2.6955056E-1,9.220499E0,9.292001E0,1.4487834E1,2.2642E1,5.627061E0,1.5408666E1,7.5942073E0,-5.2286835E0,5.319376E0,9.255571E0,2.8274167E0,6.0347E0,2.295867E1,2.5400003E1,-6.44216E-1,-2.265792E0,1.5328561E1,6.3232512E0,1.38197E-1,-8.785156E-1,-3.267114E-1,-1.4152565E0,1.8227719E-1,-2.9409876E-1,1.3756313E0,-3.0009575E0,8.085586E0,1.1003065E0,-2.2873855E-1,2.1419318E0,3.8298348E-1,3.0823355E0,-1.0225734E0,2.310763E0,-1.2819661E0,1.4010779E0,4.4997683E-1,-9.5440835E-2,-2.4963381E0,9.010063E-1,-1.6839949E0,4.0621778E-1,-7.563501E-1,3.972587E-1,2.9614164E-2,-5.255597E-1,2.901371E-1,1.9110157E0],"split_indices":[2,3,3,3,3,3,3,2,0,2,1,0,1,1,3,2,3,0,0,2,2,0,3,0,0,3,0,1,3,3,0,2,0,0,0,0,0,2,0,0,2,0,2,0,1,0,0,2,0,0,0,0,0,0,0,0,0,0,0,0,0,0,0,0,0,0,0,0,0,0,0,0,0,0,0,0,0,0,0],"split_type":[0,0,0,0,0,0,0,0,0,0,0,0,0,0,0,0,0,0,0,0,0,0,0,0,0,0,0,0,0,0,0,0,0,0,0,0,0,0,0,0,0,0,0,0,0,0,0,0,0,0,0,0,0,0,0,0,0,0,0,0,0,0,0,0,0,0,0,0,0,0,0,0,0,0,0,0,0,0,0],"sum_hessian":[1.826E3,1.789E3,3.7E1,8.54E2,9.35E2,1.2E1,2.5E1,8.4E2,1.4E1,5E1,8.85E2,2E0,1E1,1.6E1,9E0,8.04E2,3.6E1,1E0,1.3E1,3.7E1,1.3E1,8.51E2,3.4E1,1E0,1E0,8E0,2E0,1.1E1,5E0,8E0,1E0,7.91E2,1.3E1,4E0,3.2E1,3E0,1E1,3.4E1,3E0,2E0,1.1E1,8.17E2,3.4E1,1.7E1,1.7E1,1E0,7E0,4E0,7E0,1E0,4E0,1E0,7E0,6.44E2,1.47E2,1E0,1.2E1,1E0,3E0,2.3E1,9E0,7E0,3E0,3.2E1,2E0,9E0,2E0,8.3E1,7.34E2,1E0,3.3E1,1.6E1,1E0,8E0,9E0,1E0,3E0,2E0,5E0],"tree_param":{"num_deleted":"0","num_feature":"4","num_nodes":"79","size_leaf_vector":"1"}},{"base_weights":[8.688043E-3,-4.544581E0,3.121181E-2,-5.3600802E0,-1.1268889E0,7.851178E-3,4.2563653E0,-6.992409E-1,-1.8316894E0,-4.384558E-1,-6.864424E-2,3.5910603E-2,-6.3170233E0,6.243348E0,1.891152E0,-6.6147815E-4,4.3953466E0,-9.872049E0,8.69611E-1,2.9715158E-2,2.326398E0,2.0199089E-1,6.995253E-1,2.6684156E-1,-4.6531406E-1,7.4169464E0,8.243289E-1,5.4686166E-2,-1.1919374E1,4.5531154E-2,1.1041985E0,-1.2088604E0,-8.9836545E-2,2.6558838E0,-3.952572E-1,-1.775552E0,7.8992766E-1,-3.9756877E0,-9.881556E-1],"categories":[],"categories_nodes":[],"categories_segments":[],"categories_sizes":[],"default_left":[0,0,0,0,0,0,0,0,0,0,0,0,0,0,0,0,0,0,0,0,0,0,0,0,0,0,0,0,0,0,0,0,0,0,0,0,0,0,0],"id":13,"left_children":[1,3,5,7,9,11,13,-1,-1,-1,-1,15,17,19,21,23,25,27,-1,-1,-1,-1,-1,29,31,33,35,-1,37,-1,-1,-1,-1,-1,-1,-1,-1,-1,-1],"loss_changes":[1.8751309E2,1.90439E1,1.7950598E2,1.5783386E0,5.671532E-1,3.2145178E2,3.518927E1,0E0,0E0,0E0,0E0,2.874618E2,2.9071335E2,4.5661636E1,1.6495209E0,2.224897E2,1.557388E2,1.2567969E2,0E0,0E0,0E0,0E0,0E0,4.4569833E2,3.8541058E2,1.1200549E2,1.1315352E2,0E0,1.3834473E1,0E0,0E0,0E0,0E0,0E0,0E0,0E0,0E0,0E0,0E0],"parents":[2147483647,0,0,1,1,2,2,3,3,4,4,5,5,6,6,11,11,12,12,13,13,14,14,15,15,16,16,17,17,23,23,24,24,25,25,26,26,28,28],"right_children":[2,4,6,8,10,12,14,-1,-1,-1,-1,16,18,20,22,24,26,28,-1,-1,-1,-1,-1,30,32,34,36,-1,38,-1,-1,-1,-1,-1,-1,-1,-1,-1,-1],"split_conditions":[4.2038956E1,7.9526596E0,2.8975334E1,5.506941E0,6.3232512E0,2.8494081E1,1.9017543E2,-6.992409E-1,-1.8316894E0,-4.384558E-1,-6.864424E-2,2.7871168E1,2.1167543E2,6.696387E0,2.4622762E2,1.6392E1,1.9113625E2,6.279395E0,8.69611E-1,2.9715158E-2,2.326398E0,2.0199089E-1,6.995253E-1,1.5914914E1,1.6700335E1,1E-1,2.0100687E2,5.4686166E-2,1E-1,4.5531154E-2,1.1041985E0,-1.2088604E0,-8.9836545E-2,2.6558838E0,-3.952572E-1,-1.775552E0,7.8992766E-1,-3.9756877E0,-9.881556E-1],"split_indices":[3,2,0,2,0,0,3,0,0,0,0,0,3,2,3,0,3,2,0,0,0,0,0,0,0,1,3,0,1,0,0,0,0,0,0,0,0,0,0],"split_type":[0,0,0,0,0,0,0,0,0,0,0,0,0,0,0,0,0,0,0,0,0,0,0,0,0,0,0,0,0,0,0,0,0,0,0,0,0,0,0],"sum_hessian":[1.826E3,8E0,1.818E3,6E0,2E0,1.809E3,9E0,2E0,4E0,1E0,1E0,1.802E3,7E0,4E0,5E0,1.788E3,1.4E1,5E0,2E0,1E0,3E0,2E0,3E0,1.135E3,6.53E2,7E0,7E0,1E0,4E0,1.099E3,3.6E1,2.8E1,6.25E2,6E0,1E0,1E0,6E0,3E0,1E0],"tree_param":{"num_deleted":"0","num_feature":"4","num_nodes":"39","size_leaf_vector":"1"}},{"base_weights":[4.6066702E-3,3.943132E-2,-2.613238E0,-1.1959814E0,1.0651891E-1,4.9072343E-1,-3.2585666E0,-6.182116E-2,-3.6968238E0,1.3656552E1,5.0858445E-2,-1.3969243E0,2.9416113E0,-8.397455E-1,-4.0088573E0,3.63792E0,-1.4479362E0,-4.6551485E0,-1.992471E-2,5.885543E0,-8.3217114E-1,3.7953198E0,1.5398811E-2,7.072678E-2,1.1294934E0,3.952592E-1,-1.5347068E0,-1.7486198E0,-2.1479702E0,-5.7055407E0,1.0102444E1,-7.3727673E-1,-7.412152E0,1.0130872E0,-5.1737423E0,-1.5111852E0,1.4763169E0,2.259865E-1,-6.004635E-1,-2.5343132E0,8.999958E0,-3.2377014E0,5.8244802E-2,-8.215182E-1,1.8054898E-1,-1.5067965E0,-1.1608027E0,-3.6438906E0,1.1315386E0,3.9822662E-1,6.110096E0,1.3555856E0,-5.561281E-1,-2.7976193E0,3.6124706E-2,-3.3010938E0,-1.212171E0,-9.670945E-1,4.0255547E-2,-6.659775E-2,6.349253E-1,-2.0101411E0,1.9928315E0,4.205074E0,-2.3263901E-1,-2.154468E0,9.7708E-1,1.0818107E0,-1.3348735E-3,1.3224564E-1,-5.0998595E-2,-4.519981E-1,-2.4645997E-2],"categories":[],"categories_nodes":[],"categories_segments":[],"categories_sizes":[],"default_left":[0,0,0,0,0,0,0,0,0,0,0,0,0,0,0,0,0,0,0,0,0,0,0,0,0,0,0,0,0,0,0,0,0,0,0,0,0,0,0,0,0,0,0,0,0,0,0,0,0,0,0,0,0,0,0,0,0,0,0,0,0,0,0,0,0,0,0,0,0,0,0,0,0],"id":14,"left_children":[1,3,5,7,9,11,13,15,17,19,21,-1,23,25,27,29,31,33,35,-1,37,39,41,-1,-1,-1,43,-1,45,47,49,51,53,-1,55,57,59,-1,-1,61,63,65,67,-1,69,-1,71,-1,-1,-1,-1,-1,-1,-1,-1,-1,-1,-1,-1,-1,-1,-1,-1,-1,-1,-1,-1,-1,-1,-1,-1,-1,-1],"loss_changes":[1.6666246E2,1.4964445E2,4.9672836E1,2.6355255E2,1.2904978E3,7.6772644E1,3.2929947E1,3.386048E2,1.02093475E2,6.209905E2,2.264595E2,0E0,8.024025E0,1.10173645E1,3.827881E1,1.1448584E3,1.9798447E2,1.1327573E2,1.784999E1,0E0,7.069725E0,5.499039E2,2.3588408E2,0E0,0E0,0E0,1.0817569E1,0E0,1.9709843E1,5.3414343E2,9.6375183E2,2.665737E2,7.318115E1,0E0,1.0087732E2,1.1703107E1,4.818185E0,0E0,0E0,3.5037506E2,4.5225525E2,5.8689606E2,3.7146835E2,0E0,3.486454E-1,0E0,2.860695E0,0E0,0E0,0E0,0E0,0E0,0E0,0E0,0E0,0E0,0E0,0E0,0E0,0E0,0E0,0E0,0E0,0E0,0E0,0E0,0E0,0E0,0E0,0E0,0E0,0E0,0E0],"parents":[2147483647,0,0,1,1,2,2,3,3,4,4,5,5,6,6,7,7,8,8,9,9,10,10,12,12,13,13,14,14,15,15,16,16,17,17,18,18,20,20,21,21,22,22,26,26,28,28,29,29,30,30,31,31,32,32,34,34,35,35,36,36,39,39,40,40,41,41,42,42,44,44,46,46],"right_children":[2,4,6,8,10,12,14,16,18,20,22,-1,24,26,28,30,32,34,36,-1,38,40,42,-1,-1,-1,44,-1,46,48,50,52,54,-1,56,58,60,-1,-1,62,64,66,68,-1,70,-1,72,-1,-1,-1,-1,-1,-1,-1,-1,-1,-1,-1,-1,-1,-1,-1,-1,-1,-1,-1,-1,-1,-1,-1,-1,-1,-1],"split_conditions":[3.4046326E2,2.3232498E0,2.1999998E0,1.41075E0,2.51075E0,6.8777895E0,7.145796E0,2.6209293E2,3.0865982E2,1E-1,2.8274167E0,-1.3969243E0,-8.7674993E-1,2.8999999E0,9.983106E0,1.21166624E-1,1.246167E0,1.6156497E2,1.77325E0,5.885543E0,1.2E0,2.69825E0,3.2357502E0,7.072678E-2,1.1294934E0,3.952592E-1,7.7999997E0,-1.7486198E0,2.4E0,2.5078717E2,2.4622762E2,5.4119864E0,1E-1,1.0130872E0,1.977583E2,4.1E0,1.7000003E0,2.259865E-1,-6.004635E-1,2.3763904E2,2.4999998E0,9.983106E0,3.9045E0,-8.215182E-1,2.51075E0,-1.5067965E0,3.4932602E2,-3.6438906E0,1.1315386E0,3.9822662E-1,6.110096E0,1.3555856E0,-5.561281E-1,-2.7976193E0,3.6124706E-2,-3.3010938E0,-1.212171E0,-9.670945E-1,4.0255547E-2,-6.659775E-2,6.349253E-1,-2.0101411E0,1.9928315E0,4.205074E0,-2.3263901E-1,-2.154468E0,9.7708E-1,1.0818107E0,-1.3348735E-3,1.3224564E-1,-5.0998595E-2,-4.519981E-1,-2.4645997E-2],"split_indices":[3,0,1,0,0,2,2,3,3,1,0,0,0,1,2,0,0,3,0,0,1,0,0,0,0,0,1,0,1,3,3,2,1,0,3,1,1,0,0,3,1,2,0,0,0,0,3,0,0,0,0,0,0,0,0,0,0,0,0,0,0,0,0,0,0,0,0,0,0,0,0,0,0],"split_type":[0,0,0,0,0,0,0,0,0,0,0,0,0,0,0,0,0,0,0,0,0,0,0,0,0,0,0,0,0,0,0,0,0,0,0,0,0,0,0,0,0,0,0,0,0,0,0,0,0,0,0,0,0,0,0,0,0,0,0,0,0,0,0,0,0,0,0,0,0,0,0,0,0],"sum_hessian":[1.826E3,1.803E3,2.3E1,9.2E1,1.711E3,4E0,1.9E1,6.4E1,2.8E1,6E0,1.705E3,1E0,3E0,5E0,1.4E1,1.7E1,4.7E1,2.2E1,6E0,4E0,2E0,1.5E1,1.69E3,1E0,2E0,1E0,4E0,6E0,8E0,7E0,1E1,4.3E1,4E0,1E0,2.1E1,3E0,3E0,1E0,1E0,7E0,8E0,2.1E1,1.669E3,2E0,2E0,1E0,7E0,4E0,3E0,6E0,4E0,7E0,3.6E1,3E0,1E0,2E0,1.9E1,1E0,2E0,1E0,2E0,5E0,2E0,5E0,3E0,1.3E1,8E0,2.8E1,1.641E3,1E0,1E0,5E0,2E0],"tree_param":{"num_deleted":"0","num_feature":"4","num_nodes":"73","size_leaf_vector":"1"}},{"base_weights":[5.0151777E-3,3.822654E-2,-2.2969806E0,-4.86287E-3,2.7684221E0,-3.4171772E0,-1.6294822E-1,1.0473859E-2,-1.6308479E0,5.783417E0,4.7734204E-1,-1.607489E0,-4.52321E0,1.143044E0,-1.0277528E0,-1.1724362E-2,4.3576946E0,-1.3024788E0,7.098563E0,-3.6710289E0,2.0361507E0,-3.2563777E0,8.5549426E-1,-5.2640324E0,-3.1198445E-1,-1.4553556E0,3.5896054E-1,2.6782805E-2,-5.1974416E0,7.066102E0,-7.9433966E-1,8.707254E0,-9.3699135E-2,-4.1369822E-2,-1.355951E0,-2.8974419E0,3.8059726E0,-5.459805E-2,-3.9794755E0,8.3125824E-1,-7.065814E-1,-5.9096713E0,-6.65423E-1,-8.171063E-1,-1.4961891E-1,1.0685349E-2,-2.315176E0,-1.7783972E0,-2.3588468E-1,-2.7875254E-1,3.3888104E0,-1.2263217E0,4.9981198E-1,2.9939184E0,8.507197E-1,7.599312E-1,-8.0209583E-1,-1.2473373E0,1.325409E-1,-5.5887796E-2,1.6630671E0,-3.6343288E-1,-1.3495016E0,-4.949956E-2,-2.684621E-1,-2.9256022E-1,-2.0104578E0,2.9461157E-1,-3.69421E-1],"categories":[],"categories_nodes":[],"categories_segments":[],"categories_sizes":[],"default_left":[0,0,0,0,0,0,0,0,0,0,0,0,0,0,0,0,0,0,0,0,0,0,0,0,0,0,0,0,0,0,0,0,0,0,0,0,0,0,0,0,0,0,0,0,0,0,0,0,0,0,0,0,0,0,0,0,0,0,0,0,0,0,0,0,0,0,0,0,0],"id":15,"left_children":[1,3,5,7,9,11,13,15,-1,17,19,21,23,-1,25,27,29,-1,31,33,35,37,39,41,-1,43,-1,45,47,49,51,53,55,-1,-1,57,59,-1,61,-1,63,65,-1,-1,67,-1,-1,-1,-1,-1,-1,-1,-1,-1,-1,-1,-1,-1,-1,-1,-1,-1,-1,-1,-1,-1,-1,-1,-1],"loss_changes":[1.3976636E2,2.1200528E2,6.1597122E1,1.4791145E2,1.90652E2,2.6755753E1,3.8275387E1,1.7095361E2,0E0,1.9060953E2,1.1740555E2,3.52753E1,2.0330444E1,0E0,1.0301392E1,3.5218787E2,1.3119714E2,0E0,1.2808734E2,1.4371452E1,1.24538124E2,1.0391163E1,1.3925628E1,2.6246033E0,0E0,1.2841345E1,0E0,1.2007605E2,3.72323E1,2.134129E2,3.922238E1,3.8942444E1,2.710373E1,0E0,0E0,1.8671383E1,7.04017E1,0E0,2.9544067E-1,0E0,1.5827477E-1,1.690895E1,0E0,0E0,7.3303328E0,0E0,0E0,0E0,0E0,0E0,0E0,0E0,0E0,0E0,0E0,0E0,0E0,0E0,0E0,0E0,0E0,0E0,0E0,0E0,0E0,0E0,0E0,0E0,0E0],"parents":[2147483647,0,0,1,1,2,2,3,3,4,4,5,5,6,6,7,7,9,9,10,10,11,11,12,12,14,14,15,15,16,16,18,18,19,19,20,20,21,21,22,22,23,23,25,25,27,27,28,28,29,29,30,30,31,31,32,32,35,35,36,36,38,38,40,40,41,41,44,44],"right_children":[2,4,6,8,10,12,14,16,-1,18,20,22,24,-1,26,28,30,-1,32,34,36,38,40,42,-1,44,-1,46,48,50,52,54,56,-1,-1,58,60,-1,62,-1,64,66,-1,-1,68,-1,-1,-1,-1,-1,-1,-1,-1,-1,-1,-1,-1,-1,-1,-1,-1,-1,-1,-1,-1,-1,-1,-1,-1],"split_conditions":[3.2799995E1,2.7800003E1,1.48169985E1,2.7000002E1,1.9285413E2,3.73E1,1.4906583E1,2.5400003E1,-1.6308479E0,1.4714429E2,6.6961665E0,3.5100006E1,1.2173248E1,1.143044E0,2.2642E1,2.35E1,1.83045E1,-1.3024788E0,1.0495713E1,3.089917E0,1.977583E2,6.2145634E0,7.4065833E0,2.906033E2,-3.1198445E-1,3.8899998E1,3.5896054E-1,2.0523155E1,1.9060751E1,1.6673117E2,1.8806585E1,1.6031584E1,8.000335E0,-4.1369822E-2,-1.355951E0,2.2108667E1,2.95E1,-5.459805E-2,6.9550843E0,8.3125824E-1,9.844083E0,6.3690495E0,-6.65423E-1,-8.171063E-1,8.913181E0,1.0685349E-2,-2.315176E0,-1.7783972E0,-2.3588468E-1,-2.7875254E-1,3.3888104E0,-1.2263217E0,4.9981198E-1,2.9939184E0,8.507197E-1,7.599312E-1,-8.0209583E-1,-1.2473373E0,1.325409E-1,-5.5887796E-2,1.6630671E0,-3.6343288E-1,-1.3495016E0,-4.949956E-2,-2.684621E-1,-2.9256022E-1,-2.0104578E0,2.9461157E-1,-3.69421E-1],"split_indices":[1,1,0,1,3,1,0,1,0,3,0,1,0,0,0,1,0,0,2,0,3,2,0,3,0,1,0,2,0,3,0,0,0,0,0,0,1,0,2,0,0,2,0,0,2,0,0,0,0,0,0,0,0,0,0,0,0,0,0,0,0,0,0,0,0,0,0,0,0],"split_type":[0,0,0,0,0,0,0,0,0,0,0,0,0,0,0,0,0,0,0,0,0,0,0,0,0,0,0,0,0,0,0,0,0,0,0,0,0,0,0,0,0,0,0,0,0,0,0,0,0,0,0,0,0,0,0,0,0,0,0,0,0,0,0,0,0,0,0,0,0],"sum_hessian":[1.826E3,1.801E3,2.5E1,1.774E3,2.7E1,1.6E1,9E0,1.77E3,4E0,1.1E1,1.6E1,7E0,9E0,1E0,8E0,1.762E3,8E0,1E0,1E1,4E0,1.2E1,4E0,3E0,7E0,2E0,7E0,1E0,1.75E3,1.2E1,5E0,3E0,8E0,2E0,1E0,3E0,3E0,9E0,1E0,3E0,1E0,2E0,5E0,2E0,3E0,4E0,1.749E3,1E0,1E1,2E0,2E0,3E0,1E0,2E0,6E0,2E0,1E0,1E0,2E0,1E0,3E0,6E0,1E0,2E0,1E0,1E0,1E0,4E0,2E0,2E0],"tree_param":{"num_deleted":"0","num_feature":"4","num_nodes":"69","size_leaf_vector":"1"}},{"base_weights":[2.8367373E-4,-1.7849158E-2,3.296804E0,3.8821378E-3,-4.93504E0,4.8340864E0,1.466268E0,-2.2406615E-2,3.1530159E0,-7.7364182E0,6.9381905E-1,2.3855211E-2,1.8008549E0,1.5972254E-1,1.8000956E0,1.8348826E-2,-1.9615397E0,5.4662595E0,4.4564533E-1,4.508057E-2,-9.343809E0,6.2424624E-1,1.4368802E-1,-2.462514E-2,2.078202E0,1.7981936E0,-3.6213574E0,6.5684595E0,-3.3737126E-1,-2.502308E0,1.2057527E0,-3.0832613E0,-8.4133476E-1,-3.25225E-4,-1.5239794E0,-1.0553339E0,1.1408067E0,-5.692547E-1,1.4127179E0,-2.2499769E0,4.585885E-1,-2.9818326E-1,2.3983555E0,-1.1906437E0,5.045563E-1],"categories":[],"categories_nodes":[],"categories_segments":[],"categories_sizes":[],"default_left":[0,0,0,0,0,0,0,0,0,0,0,0,0,0,0,0,0,0,0,0,0,0,0,0,0,0,0,0,0,0,0,0,0,0,0,0,0,0,0,0,0,0,0,0,0],"id":16,"left_children":[1,3,5,7,9,11,13,15,17,19,-1,-1,-1,-1,21,23,25,27,29,-1,31,-1,-1,33,35,37,39,41,-1,43,-1,-1,-1,-1,-1,-1,-1,-1,-1,-1,-1,-1,-1,-1,-1],"loss_changes":[1.0926823E2,1.9428505E2,2.1052437E1,1.4999753E2,1.8032225E2,2.7307495E1,9.121027E-1,1.4205331E2,9.15061E1,7.7466E1,0E0,0E0,0E0,0E0,4.8687363E-1,1.5593501E2,2.3740933E2,6.5502014E1,9.4334015E1,0E0,1.7070923E0,0E0,0E0,2.05401E2,3.6078412E2,1.3802809E2,5.30803E2,8.34371E1,0E0,3.7355415E1,0E0,0E0,0E0,0E0,0E0,0E0,0E0,0E0,0E0,0E0,0E0,0E0,0E0,0E0,0E0],"parents":[2147483647,0,0,1,1,2,2,3,3,4,4,5,5,6,6,7,7,8,8,9,9,14,14,15,15,16,16,17,17,18,18,20,20,23,23,24,24,25,25,26,26,27,27,29,29],"right_children":[2,4,6,8,10,12,14,16,18,20,-1,-1,-1,-1,22,24,26,28,30,-1,32,-1,-1,34,36,38,40,42,-1,44,-1,-1,-1,-1,-1,-1,-1,-1,-1,-1,-1,-1,-1,-1,-1],"split_conditions":[2.8975334E1,2.8494081E1,1.9017543E2,2.7871168E1,2.1167543E2,6.696387E0,2.4622762E2,2.6429499E1,1.9113625E2,6.279395E0,6.9381905E-1,2.3855211E-2,1.8008549E0,1.5972254E-1,8.225035E0,2.5227419E1,7.172949E0,1E-1,2.2018835E2,4.508057E-2,1E-1,6.2424624E-1,1.4368802E-1,2.5010748E1,6.87779E0,2.6921171E1,9.659814E0,1.5874962E2,-3.3737126E-1,8.4042845E0,1.2057527E0,-3.0832613E0,-8.4133476E-1,-3.25225E-4,-1.5239794E0,-1.0553339E0,1.1408067E0,-5.692547E-1,1.4127179E0,-2.2499769E0,4.585885E-1,-2.9818326E-1,2.3983555E0,-1.1906437E0,5.045563E-1],"split_indices":[0,0,3,0,3,2,3,0,3,2,0,0,0,0,2,0,2,1,3,0,1,0,0,0,2,0,2,3,0,2,0,0,0,0,0,0,0,0,0,0,0,0,0,0,0],"split_type":[0,0,0,0,0,0,0,0,0,0,0,0,0,0,0,0,0,0,0,0,0,0,0,0,0,0,0,0,0,0,0,0,0,0,0,0,0,0,0,0,0,0,0,0,0],"sum_hessian":[1.826E3,1.817E3,9E0,1.81E3,7E0,4E0,5E0,1.796E3,1.4E1,5E0,2E0,1E0,3E0,2E0,3E0,1.76E3,3.6E1,7E0,7E0,1E0,4E0,2E0,1E0,1.725E3,3.5E1,1.1E1,2.5E1,6E0,1E0,4E0,3E0,3E0,1E0,1.718E3,7E0,8E0,2.7E1,5E0,6E0,1.4E1,1.1E1,1E0,5E0,3E0,1E0],"tree_param":{"num_deleted":"0","num_feature":"4","num_nodes":"45","size_leaf_vector":"1"}},{"base_weights":[-9.556814E-5,3.1814832E-2,-1.8498663E0,2.9358602E-1,-2.066227E-1,-3.6999228E0,-3.081631E-1,2.1283986E-1,4.8119483E0,-5.462677E-1,3.8440728E-1,2.1598332E0,-4.856535E0,1.9318442E0,-3.3496528E0,1.0878396E1,1.745408E-1,3.7132194E0,1.889136E0,-3.817257E-1,-6.1472774E0,1.8953089E0,-6.870944E-1,-1.9678506E0,2.9397755E0,-2.0733547E0,-3.403743E0,-9.838104E-1,3.738477E0,-3.6665537E0,-1.6970201E-1,-1.7523594E-1,5.0705147E0,4.0513778E-1,-1.1131216E0,-2.0340042E0,3.2936056E0,-9.469369E-1,3.0268377E-1,-7.0085907E0,1.145061E0,1.381618E0,7.933998E0,-1.1431863E0,3.5205019E0,2.76491E-1,-1.217886E0,-5.8162022E-2,-3.3984792E-1,2.3395238E0,1.7620856E0,-3.9223596E-1,-1.3046111E0,4.408132E-3,1.7837422E0,-3.1101642E0,-1.7190756E-1,-9.6202475E-1,1.5283303E0,-3.9103958E-1,4.9385285E-1,-1.7180675E-1,5.5216557E-1,-2.6960626E0,-1.1720843E0,1.0282773E0,-7.3890634E-2,1.0427465E0,3.3209527E0,-2.5082467E0,-2.8055698E-1,1.8486259E0,-6.7967874E-1,-3.052414E-1,7.5644743E-1],"categories":[],"categories_nodes":[],"categories_segments":[],"categories_sizes":[],"default_left":[0,0,0,0,0,0,0,0,0,0,0,0,0,0,0,0,0,0,0,0,0,0,0,0,0,0,0,0,0,0,0,0,0,0,0,0,0,0,0,0,0,0,0,0,0,0,0,0,0,0,0,0,0,0,0,0,0,0,0,0,0,0,0,0,0,0,0,0,0,0,0,0,0,0,0],"id":17,"left_children":[1,3,5,7,9,11,13,15,17,19,21,23,25,27,29,31,33,-1,35,37,39,41,43,-1,-1,-1,45,47,49,51,-1,-1,-1,53,55,-1,57,59,61,63,-1,65,67,69,71,-1,-1,-1,-1,-1,73,-1,-1,-1,-1,-1,-1,-1,-1,-1,-1,-1,-1,-1,-1,-1,-1,-1,-1,-1,-1,-1,-1,-1,-1],"loss_changes":[1.0790104E2,1.1222237E2,8.72792E1,3.1164407E2,1.8910667E2,1.05373795E2,1.2910426E2,3.424506E2,3.0830316E2,5.48771E2,5.5821545E2,2.6411017E2,1.2295807E1,6.1620647E1,4.9838943E0,2.1699973E2,2.5016998E2,0E0,1.6843736E2,2.2542514E2,1.7264917E2,4.32627E2,3.9167285E2,0E0,0E0,0E0,2.927375E1,3.689413E-1,4.2426674E1,5.579094E0,0E0,0E0,0E0,1.5445239E3,6.338163E2,0E0,1.4510281E2,2.9706705E2,3.5645297E2,6.30636E1,0E0,4.4382474E2,1.1530475E2,2.669084E2,3.196501E2,0E0,0E0,0E0,0E0,0E0,1.5230413E1,0E0,0E0,0E0,0E0,0E0,0E0,0E0,0E0,0E0,0E0,0E0,0E0,0E0,0E0,0E0,0E0,0E0,0E0,0E0,0E0,0E0,0E0,0E0,0E0],"parents":[2147483647,0,0,1,1,2,2,3,3,4,4,5,5,6,6,7,7,8,8,9,9,10,10,11,11,12,12,13,13,14,14,15,15,16,16,18,18,19,19,20,20,21,21,22,22,26,26,27,27,28,28,29,29,33,33,34,34,36,36,37,37,38,38,39,39,41,41,42,42,43,43,44,44,50,50],"right_children":[2,4,6,8,10,12,14,16,18,20,22,24,26,28,30,32,34,-1,36,38,40,42,44,-1,-1,-1,46,48,50,52,-1,-1,-1,54,56,-1,58,60,62,64,-1,66,68,70,72,-1,-1,-1,-1,-1,74,-1,-1,-1,-1,-1,-1,-1,-1,-1,-1,-1,-1,-1,-1,-1,-1,-1,-1,-1,-1,-1,-1,-1,-1],"split_conditions":[1.5328561E1,2.408432E2,1.9533334E2,2.3899377E2,9.346143E0,1.7695822E2,3.231761E2,3.9199987E-1,5.7628117E0,9.220499E0,3.0636588E2,1.43565855E1,1.2E0,6.508667E0,3.3637057E2,-8.7674993E-1,1.0900001E1,3.7132194E0,-3.4758338E-1,1.4579501E1,3.1092877E2,3.0480853E2,2.1262833E1,-1.9678506E0,2.9397755E0,-2.0733547E0,2.4999998E0,2.0503333E0,9.5045E0,3.298182E2,-1.6970201E-1,-1.7523594E-1,5.0705147E0,7.7999997E0,1.1700001E1,-2.0340042E0,5.983477E0,1.0199999E1,1E0,1.68045E1,1.145061E0,1.1431583E1,1E-1,3.0791104E2,1.27279215E1,2.76491E-1,-1.217886E0,-5.8162022E-2,-3.3984792E-1,2.3395238E0,1E-1,-3.9223596E-1,-1.3046111E0,4.408132E-3,1.7837422E0,-3.1101642E0,-1.7190756E-1,-9.6202475E-1,1.5283303E0,-3.9103958E-1,4.9385285E-1,-1.7180675E-1,5.5216557E-1,-2.6960626E0,-1.1720843E0,1.0282773E0,-7.3890634E-2,1.0427465E0,3.3209527E0,-2.5082467E0,-2.8055698E-1,1.8486259E0,-6.7967874E-1,-3.052414E-1,7.5644743E-1],"split_indices":[2,3,3,3,2,3,3,0,2,2,3,0,1,0,3,0,1,0,0,0,3,3,0,0,0,0,1,0,0,3,0,0,0,1,1,0,2,1,1,0,0,0,1,3,2,0,0,0,0,0,1,0,0,0,0,0,0,0,0,0,0,0,0,0,0,0,0,0,0,0,0,0,0,0,0],"split_type":[0,0,0,0,0,0,0,0,0,0,0,0,0,0,0,0,0,0,0,0,0,0,0,0,0,0,0,0,0,0,0,0,0,0,0,0,0,0,0,0,0,0,0,0,0,0,0,0,0,0,0,0,0,0,0,0,0,0,0,0,0,0,0,0,0,0,0,0,0,0,0,0,0,0,0],"sum_hessian":[1.826E3,1.796E3,3E1,8.56E2,9.4E2,1.3E1,1.7E1,8.42E2,1.4E1,5.97E2,3.43E2,2E0,1.1E1,1E1,7E0,2E0,8.4E2,3E0,1.1E1,5.81E2,1.6E1,1.42E2,2.01E2,1E0,1E0,3E0,8E0,4E0,6E0,6E0,1E0,1E0,1E0,7.13E2,1.27E2,1E0,1E1,3.18E2,2.63E2,1.5E1,1E0,1.32E2,1E1,1.82E2,1.9E1,1E0,7E0,1E0,3E0,1E0,5E0,2E0,4E0,6.67E2,4.6E1,6E0,1.21E2,2E0,8E0,2.8E2,3.8E1,1.68E2,9.5E1,8E0,7E0,5.8E1,7.4E1,5E0,5E0,4E0,1.78E2,1.3E1,6E0,1E0,4E0],"tree_param":{"num_deleted":"0","num_feature":"4","num_nodes":"75","size_leaf_vector":"1"}},{"base_weights":[2.9914032E-3,1.3260773E-1,-4.892863E-1,2.8546998E-2,2.496536E0,4.5983276E0,-6.131962E-1,6.633963E-2,-3.2139552E0,-1.6773783E0,3.7755184E0,-7.289428E0,-3.371505E-1,3.6941501E-1,-3.7644312E-1,-3.9146907E0,1.0945619E0,2.695897E0,-4.0092034E0,9.660109E0,9.862953E-1,-6.419866E0,-3.4725204E0,5.9595494E0,-4.2342848E-1,1.7684306E0,-7.941102E-2,-3.2904692E0,-2.563593E-1,-5.853631E0,-1.4864144E0,-2.409781E0,-1.3285143E0,1.7960578E0,1.4703246E1,-4.142299E0,3.3962188E0,-5.1569176E0,1.1583331E0,-6.743383E0,5.0027895E0,-2.8325043E0,-8.876571E-2,2.6911047E-1,1.8294679E0,-1.5437596E0,4.8227523E-2,5.031715E-1,-1.8746886E0,2.6603606E0,-9.726765E-2,-2.1851592E0,-3.1258622E-1,1.1962881E0,-8.5142446E-1,1.2122537E0,-1.4060006E0,2.2081873E0,-5.70568E-1,4.9250603E0,1.4914227E-1,-2.3141713E0,3.5906795E-2,3.3677113E0,-8.239326E-3,1.53119E-1,-1.9419096E0,-3.2387793E0,2.0425703E-1,-1.557845E0,7.7886695E-1,1.7179953E0,-1.18667245E-1],"categories":[],"categories_nodes":[],"categories_segments":[],"categories_sizes":[],"default_left":[0,0,0,0,0,0,0,0,0,0,0,0,0,0,0,0,0,0,0,0,0,0,0,0,0,0,0,0,0,0,0,0,0,0,0,0,0,0,0,0,0,0,0,0,0,0,0,0,0,0,0,0,0,0,0,0,0,0,0,0,0,0,0,0,0,0,0,0,0,0,0,0,0],"id":18,"left_children":[1,3,5,7,9,-1,11,13,15,17,19,21,23,25,27,29,-1,-1,31,33,35,-1,37,39,41,43,45,47,49,51,53,-1,55,57,59,61,63,65,-1,67,-1,69,71,-1,-1,-1,-1,-1,-1,-1,-1,-1,-1,-1,-1,-1,-1,-1,-1,-1,-1,-1,-1,-1,-1,-1,-1,-1,-1,-1,-1,-1,-1],"loss_changes":[1.1664069E2,3.5587927E2,7.5611633E2,1.7017992E2,3.319731E2,0E0,6.9601855E2,1.8425673E2,9.12236E1,4.090163E2,7.6190375E2,7.3354535E2,2.0081573E2,5.1189078E2,1.9441595E2,6.1923294E1,0E0,0E0,1.2953986E2,5.684845E2,4.2193234E2,0E0,1.8049715E2,7.931019E2,2.9079684E2,7.415768E2,7.528142E2,3.3381342E2,3.3539993E2,4.746512E1,7.050986E1,0E0,1.8121835E2,1.5804156E2,2.1093347E2,1.6836679E2,6.1683887E2,8.535095E1,0E0,9.7611755E1,0E0,5.772753E2,5.6961597E2,0E0,0E0,0E0,0E0,0E0,0E0,0E0,0E0,0E0,0E0,0E0,0E0,0E0,0E0,0E0,0E0,0E0,0E0,0E0,0E0,0E0,0E0,0E0,0E0,0E0,0E0,0E0,0E0,0E0,0E0],"parents":[2147483647,0,0,1,1,2,2,3,3,4,4,6,6,7,7,8,8,9,9,10,10,11,11,12,12,13,13,14,14,15,15,18,18,19,19,20,20,22,22,23,23,24,24,25,25,26,26,27,27,28,28,29,29,30,30,32,32,33,33,34,34,35,35,36,36,37,37,39,39,41,41,42,42],"right_children":[2,4,6,8,10,-1,12,14,16,18,20,22,24,26,28,30,-1,-1,32,34,36,-1,38,40,42,44,46,48,50,52,54,-1,56,58,60,62,64,66,-1,68,-1,70,72,-1,-1,-1,-1,-1,-1,-1,-1,-1,-1,-1,-1,-1,-1,-1,-1,-1,-1,-1,-1,-1,-1,-1,-1,-1,-1,-1,-1,-1,-1],"split_conditions":[6E0,4.7E0,3.9199987E-1,4.3999996E0,6.725354E0,4.5983276E0,6.3999996E0,1.6446165E1,1.8550333E1,4.913044E0,8.311245E0,5.7399173E0,6.4E0,2.0013644E2,1.5985365E2,8.669949E0,1.0945619E0,2.695897E0,1.9469727E2,7.771331E0,8.942214E0,-6.419866E0,1.83045E1,2.3701141E2,7.7999997E0,1.9366231E2,2.0603572E2,1.9123251E1,1.6079794E2,1.6446165E1,4.8107505E0,-2.409781E0,5.3E0,4.8999996E0,5.9E0,2.9497595E2,9.904906E0,9.844083E0,1.1583331E0,5.514917E0,5.0027895E0,3.1423032E2,8.1E0,2.6911047E-1,1.8294679E0,-1.5437596E0,4.8227523E-2,5.031715E-1,-1.8746886E0,2.6603606E0,-9.726765E-2,-2.1851592E0,-3.1258622E-1,1.1962881E0,-8.5142446E-1,1.2122537E0,-1.4060006E0,2.2081873E0,-5.70568E-1,4.9250603E0,1.4914227E-1,-2.3141713E0,3.5906795E-2,3.3677113E0,-8.239326E-3,1.53119E-1,-1.9419096E0,-3.2387793E0,2.0425703E-1,-1.557845E0,7.7886695E-1,1.7179953E0,-1.18667245E-1],"split_indices":[1,1,0,1,2,0,1,0,0,2,2,0,1,3,3,2,0,0,3,2,2,0,0,3,1,3,3,0,3,0,0,0,1,1,1,3,2,0,0,0,0,3,1,0,0,0,0,0,0,0,0,0,0,0,0,0,0,0,0,0,0,0,0,0,0,0,0,0,0,0,0,0,0],"split_type":[0,0,0,0,0,0,0,0,0,0,0,0,0,0,0,0,0,0,0,0,0,0,0,0,0,0,0,0,0,0,0,0,0,0,0,0,0,0,0,0,0,0,0,0,0,0,0,0,0,0,0,0,0,0,0,0,0,0,0,0,0,0,0,0,0,0,0,0,0,0,0,0,0],"sum_hessian":[1.826E3,1.446E3,3.8E2,1.386E3,6E1,2E0,3.78E2,1.371E3,1.5E1,1.4E1,4.6E1,1.4E1,3.64E2,8.14E2,5.57E2,1.4E1,1E0,2E0,1.2E1,1.4E1,3.2E1,2E0,1.2E1,4E0,3.6E2,1.97E2,6.17E2,2.1E1,5.36E2,7E0,7E0,4E0,8E0,6E0,8E0,1E1,2.2E1,1E1,2E0,2E0,2E0,4.3E1,3.17E2,1.65E2,3.2E1,2.7E1,5.9E2,8E0,1.3E1,3E0,5.33E2,5E0,2E0,1E0,6E0,3E0,5E0,2E0,4E0,7E0,1E0,5E0,5E0,6E0,1.6E1,2E0,8E0,1E0,1E0,3E1,1.3E1,1.5E1,3.02E2],"tree_param":{"num_deleted":"0","num_feature":"4","num_nodes":"73","size_leaf_vector":"1"}},{"base_weights":[6.997001E-3,4.1342832E-2,-1.6110566E0,2.4406834E-2,3.8107858E0,2.1681876E0,-2.119444E0,8.9614636E-1,-3.511575E-2,6.7049026E-1,3.8689282E0,4.578297E0,-9.646511E-1,6.651865E-1,-2.8660214E0,1.7794985E0,-2.676225E0,-2.1498795E0,4.0948365E-2,1.025901E0,-1.1131155E0,1.7519298E0,3.0830413E-1,9.34124E-2,-5.275054E-1,-2.4241402E0,3.3435712E0,1.0765015E0,-3.2244835E0,9.388941E-1,1.0488482E1,-4.8856955E0,1.7826062E-1,-3.132938E0,3.5504317E0,3.0724196E0,-1.6491717E-2,-5.921487E-1,1.1863645E-1,-3.0643861E0,2.1260034E-1,6.0006756E-1,-1.1564184E-1,-3.9423704E0,-2.9411253E-1,-1.0327666E0,4.910135E-1,4.243419E0,-9.60518E-2,-2.0600944E0,-1.02672845E-1,1.4194419E0,-1.3213985E0,-1.1556269E0,1.2329535E0,3.9462376E-2,2.337348E0,2.069746E0,-7.792141E-2,-3.9493564E-1,1.6059123E-2,8.6353116E-2,-3.296671E-2,5.4576878E-2,-1.1250099E0,-1.6748065E0,-7.8890556E-1,8.2163745E-1,-4.345355E-1],"categories":[],"categories_nodes":[],"categories_segments":[],"categories_sizes":[],"default_left":[0,0,0,0,0,0,0,0,0,0,0,0,0,0,0,0,0,0,0,0,0,0,0,0,0,0,0,0,0,0,0,0,0,0,0,0,0,0,0,0,0,0,0,0,0,0,0,0,0,0,0,0,0,0,0,0,0,0,0,0,0,0,0,0,0,0,0,0,0],"id":19,"left_children":[1,3,5,7,9,11,13,15,17,19,-1,21,23,25,27,29,31,33,35,-1,37,-1,-1,-1,-1,39,-1,41,43,45,47,49,51,53,55,57,59,-1,61,63,-1,-1,-1,65,67,-1,-1,-1,-1,-1,-1,-1,-1,-1,-1,-1,-1,-1,-1,-1,-1,-1,-1,-1,-1,-1,-1,-1,-1],"loss_changes":[1.01599205E2,1.141793E2,7.760548E1,9.254811E1,2.196059E2,4.2168884E1,7.2590515E1,3.6450778E2,2.6872028E2,3.8130653E1,0E0,7.4355583E0,3.585852E0,2.86028E2,4.1628723E1,6.636669E2,1.4592967E2,3.361402E2,2.809191E2,0E0,5.535096E0,0E0,0E0,0E0,0E0,1.6212006E1,0E0,4.8224125E0,5.1432404E1,2.6551788E2,3.206817E2,1.14674225E2,2.5037775E2,2.7626443E2,1.294624E2,3.8433035E2,1.4425562E2,0E0,1.4763536E-1,1.4037136E1,0E0,0E0,0E0,2.8383698E1,2.4973005E1,0E0,0E0,0E0,0E0,0E0,0E0,0E0,0E0,0E0,0E0,0E0,0E0,0E0,0E0,0E0,0E0,0E0,0E0,0E0,0E0,0E0,0E0,0E0,0E0],"parents":[2147483647,0,0,1,1,2,2,3,3,4,4,5,5,6,6,7,7,8,8,9,9,11,11,12,12,13,13,14,14,15,15,16,16,17,17,18,18,20,20,25,25,27,27,28,28,29,29,30,30,31,31,32,32,33,33,34,34,35,35,36,36,38,38,39,39,43,43,44,44],"right_children":[2,4,6,8,10,12,14,16,18,20,-1,22,24,26,28,30,32,34,36,-1,38,-1,-1,-1,-1,40,-1,42,44,46,48,50,52,54,56,58,60,-1,62,64,-1,-1,-1,66,68,-1,-1,-1,-1,-1,-1,-1,-1,-1,-1,-1,-1,-1,-1,-1,-1,-1,-1,-1,-1,-1,-1,-1,-1],"split_conditions":[3.3473273E2,3.330042E2,1E-1,5.4119864E0,1.5119082E1,1.097262E1,6.1437774E0,2.740855E2,5.6920996E0,4.2000003E0,3.8689282E0,1.2381584E1,-8.7674993E-1,5.815978E0,4.339917E0,2.649576E2,1E-1,2.0681583E1,5.8048253E0,1.025901E0,1.0167E1,1.7519298E0,3.0830413E-1,9.34124E-2,-5.275054E-1,5.692099E0,3.3435712E0,-8.7674993E-1,1.7873251E1,3.089917E0,3.9045E0,2.8562598E2,9.999999E0,2.829426E2,7.0000005E-1,1.9575865E2,6.1437774E0,-5.921487E-1,1.2596168E1,2.51075E0,2.1260034E-1,6.0006756E-1,-1.1564184E-1,2.8E0,2.1999998E0,-1.0327666E0,4.910135E-1,4.243419E0,-9.60518E-2,-2.0600944E0,-1.02672845E-1,1.4194419E0,-1.3213985E0,-1.1556269E0,1.2329535E0,3.9462376E-2,2.337348E0,2.069746E0,-7.792141E-2,-3.9493564E-1,1.6059123E-2,8.6353116E-2,-3.296671E-2,5.4576878E-2,-1.1250099E0,-1.6748065E0,